genomestart 20
trait 1 0.85562692665511775 0.20196666188497947 0.35555977532913574 0.42563400561035242 0.98875157337609676 0.33653029835651815 0.071550895103641474 1 
node 1 1 1 1
node 2 1 1 1
node 3 1 1 1
node 4 1 1 1
node 5 1 1 1
node 6 1 1 1
node 7 1 1 1
node 8 1 1 1
node 9 1 1 1
node 10 1 1 1
node 11 1 1 1
node 12 1 1 3
node 13 1 0 2
node 14 1 0 2
node 17 1 0 0
node 24 1 0 0
node 35 1 0 0
node 344 1 0 0
node 359 1 0 0
node 380 1 0 0
node 445 1 0 0
node 462 1 0 0
node 622 1 0 0
node 669 1 0 0
node 801 1 0 0
node 979 1 0 0
node 1062 1 0 0
node 1072 1 0 0
node 1125 1 0 0
node 1171 1 0 0
node 1175 1 0 0
node 1219 1 0 0
node 1279 1 0 0
node 1591 1 0 0
node 1596 1 0 0
node 1630 1 0 0
node 1840 1 0 0
node 1918 1 0 0
node 2034 1 0 0
node 2101 1 0 0
node 2166 1 0 0
node 2338 1 0 0
node 2355 1 0 0
node 2374 1 0 0
node 2400 1 0 0
node 2405 1 0 0
node 2410 1 0 0
node 2473 1 0 0
node 2615 1 0 0
node 2720 1 0 0
node 2770 1 0 0
node 2786 1 0 0
node 2789 1 0 0
node 2937 1 0 0
node 2998 1 0 0
node 3030 1 0 0
node 3043 1 0 0
node 3079 1 0 0
node 3147 1 0 0
node 3164 1 0 0
node 3233 1 0 0
node 3235 1 0 0
node 3248 1 0 0
node 3276 1 0 0
node 3281 1 0 0
node 3296 1 0 0
node 3369 1 0 0
node 3458 1 0 0
node 3502 1 0 0
node 3523 1 0 0
node 3637 1 0 0
node 3659 1 0 0
node 3837 1 0 0
node 3847 1 0 0
node 3884 1 0 0
node 3891 1 0 0
node 3897 1 0 0
node 3920 1 0 0
node 4070 1 0 0
node 4089 1 0 0
node 4292 1 0 0
node 4299 1 0 0
node 4326 1 0 0
node 4332 1 0 0
node 4349 1 0 0
node 4358 1 0 0
node 4449 1 0 0
node 4467 1 0 0
node 4471 1 0 0
node 4523 1 0 0
node 4532 1 0 0
node 4553 1 0 0
node 4599 1 0 0
node 4627 1 0 0
node 4659 1 0 0
node 4709 1 0 0
node 4744 1 0 0
node 4902 1 0 0
gene 1 1 13 1.7644894233739419 0 1 1.7644894233739419 1
gene 1 2 13 3.8584480448497978 0 2 3.8584480448497978 1
gene 1 3 13 -1.0650744860363539 0 3 -1.0650744860363539 1
gene 1 4 13 -0.30135252815734337 0 4 -0.30135252815734337 1
gene 1 5 13 -0.34768862687525781 0 5 -0.34768862687525781 1
gene 1 6 13 -1.3924727809165651 0 6 -1.3924727809165651 1
gene 1 7 13 -0.26831037344797937 0 7 -0.26831037344797937 1
gene 1 8 13 -5.9883050212116471 0 8 -5.9883050212116471 1
gene 1 9 13 -2.1507408065448352 0 9 -2.1507408065448352 1
gene 1 10 13 6.9103558858322707 0 10 6.9103558858322707 1
gene 1 11 13 -2.8956010157447492 0 11 -2.8956010157447492 1
gene 1 12 13 1.744960670054406 0 12 1.744960670054406 1
gene 1 1 14 0.80952439096734152 0 13 0.80952439096734152 1
gene 1 2 14 -4.117498973474139 0 14 -4.117498973474139 1
gene 1 3 14 -3.1157649082670753 0 15 -3.1157649082670753 1
gene 1 4 14 2.4552085278114339 0 16 2.4552085278114339 1
gene 1 5 14 0.52698693747026237 0 17 0.52698693747026237 1
gene 1 6 14 1.2497446913969459 0 18 1.2497446913969459 1
gene 1 7 14 4.8275315858319079 0 19 4.8275315858319079 1
gene 1 8 14 6.9433814017107682 0 20 6.9433814017107682 1
gene 1 9 14 4.2595341319495494 0 21 4.2595341319495494 1
gene 1 10 14 0.66972761129482083 0 22 0.66972761129482083 1
gene 1 11 14 0.81384720037139169 0 23 0.81384720037139169 0
gene 1 12 14 0.2682712612205751 0 24 0.2682712612205751 1
gene 1 10 17 2.3616885464460067 0 31 2.3616885464460067 1
gene 1 17 14 -0.13187025400431371 0 32 -0.13187025400431371 1
gene 1 2 17 2.7356613710921542 0 34 2.7356613710921542 1
gene 1 3 17 1.5149765690392702 0 51 1.5149765690392702 1
gene 1 1 17 2.289038388565666 0 53 2.289038388565666 1
gene 1 8 24 -1.5298251444961988 0 65 -1.5298251444961988 1
gene 1 24 14 -1.1670835761083678 0 66 -1.1670835761083678 1
gene 1 4 24 2.0023087345423685 0 89 2.0023087345423685 1
gene 1 7 35 0.031245063073581159 0 98 0.031245063073581159 1
gene 1 35 14 -1.6845911881698257 0 99 -1.6845911881698257 1
gene 1 11 17 -3.6954137100351101 0 132 -3.6954137100351101 1
gene 1 17 13 -1.6742466099905999 0 219 -1.6742466099905999 1
gene 1 3 35 -2.5746496549223781 0 513 -2.5746496549223781 1
gene 1 8 17 -3.5554981254299629 0 1122 -3.5554981254299629 1
gene 1 14 13 5.8792267170172305 0 1183 5.8792267170172305 1
gene 1 3 344 -0.87139181704092361 0 1297 -0.87139181704092361 1
gene 1 344 35 -0.10117632894525919 0 1298 -0.10117632894525919 1
gene 1 8 359 3.0026824344893375 0 1351 3.0026824344893375 1
gene 1 359 17 -3.6225397986464847 0 1352 -3.6225397986464847 1
gene 1 3 24 0.11199616692587555 0 1403 0.11199616692587555 1
gene 1 8 380 0.79290346391168576 0 1444 0.79290346391168576 1
gene 1 380 17 2.3669630060633473 0 1445 2.3669630060633473 1
gene 1 1 445 -2.3337344528682227 0 1687 -2.3337344528682227 1
gene 1 445 17 6.4958830561469689 0 1688 6.4958830561469689 1
gene 1 2 462 0.33328629745323474 0 1763 0.33328629745323474 0
gene 1 462 17 0.55285833901858816 0 1764 0.55285833901858816 1
gene 1 11 380 -0.21175587848376282 0 1935 -0.21175587848376282 1
gene 1 445 344 1.3118743635303687 0 2137 1.3118743635303687 1
gene 1 35 24 -0.25474866449588379 0 2246 -0.25474866449588379 1
gene 1 11 35 -0.68824395960580742 0 2345 -0.68824395960580742 1
gene 1 6 622 -1.3029387676636401 0 2360 -1.3029387676636401 1
gene 1 622 14 -4.4010609696624137 0 2361 -4.4010609696624137 1
gene 1 1 669 0.9693646851551555 0 2523 0.9693646851551555 1
gene 1 669 13 2.0395013350246014 0 2524 2.0395013350246014 1
gene 1 445 380 0.59052481045505267 0 2537 0.59052481045505267 1
gene 1 359 35 -0.16482255247646127 0 2637 -0.16482255247646127 1
gene 1 462 801 0.68845588722660023 0 3034 0.68845588722660023 0
gene 1 801 17 -1.8237165213672986 0 3035 -1.8237165213672986 1
gene 1 12 17 0.88492203698722738 0 3191 0.88492203698722738 1
gene 1 24 669 -0.58600864195544666 0 3211 -0.58600864195544666 1
gene 1 344 622 0.46796967865338995 0 3598 0.46796967865338995 1
gene 1 6 979 0.86066466633261396 0 3668 0.86066466633261396 1
gene 1 979 622 -4.6124829281645283 0 3669 -4.6124829281645283 1
gene 1 6 1062 3.5002895486542442 0 3962 3.5002895486542442 1
gene 1 1062 14 0.52322335654088581 0 3963 0.52322335654088581 0
gene 1 1062 1072 -1.9526524025726373 0 3993 -1.9526524025726373 1
gene 1 1072 14 2.3987793404545084 0 3994 2.3987793404545084 1
gene 1 1072 1125 -0.46036475624906048 0 4201 -0.46036475624906048 1
gene 1 1125 14 -0.72148955665598025 0 4202 -0.72148955665598025 1
gene 1 8 979 1.3393950211533321 0 4301 1.3393950211533321 0
gene 1 35 1171 2.7589423104929471 0 4380 2.7589423104929471 1
gene 1 1171 14 -0.69491621902907086 0 4381 -0.69491621902907086 1
gene 1 35 1175 1.6518066067955486 0 4393 1.6518066067955486 1
gene 1 1175 1171 4.2010516216052007 0 4394 4.2010516216052007 1
gene 1 1171 1219 2.4482141212319086 0 4537 2.4482141212319086 1
gene 1 1219 14 -0.2954165869545734 0 4538 -0.2954165869545734 1
gene 1 1072 1171 -1.3290573252500302 0 4595 -1.3290573252500302 1
gene 1 1125 1175 -3.4361260573547918 0 4722 -3.4361260573547918 1
gene 1 445 1279 0.25969906978295143 0 4741 0.25969906978295143 1
gene 1 1279 344 -0.33109324701646958 0 4742 -0.33109324701646958 1
gene 1 801 35 0.050914373971016336 0 4910 0.050914373971016336 1
gene 1 979 1175 -3.0382017789586451 0 4936 -3.0382017789586451 1
gene 1 1062 1591 0.14858150419247407 0 5907 0.14858150419247407 1
gene 1 1591 1072 -2.2147202564006299 0 5908 -2.2147202564006299 1
gene 1 35 1596 -0.58732091513803264 0 5918 -0.58732091513803264 0
gene 1 1596 24 -1.4129027947610724 0 5919 -1.4129027947610724 0
gene 1 1062 1630 0.10206940588637703 0 6052 0.10206940588637703 1
gene 1 1630 1591 2.0184612856332498 0 6053 2.0184612856332498 1
gene 1 1591 801 2.0631204212843994 0 6080 2.0631204212843994 1
gene 1 1591 622 -1.3751428521588178 0 6093 -1.3751428521588178 1
gene 1 669 17 -0.28733088396830975 0 6137 -0.28733088396830975 1
gene 1 1591 1175 0.3037529808952254 0 6176 0.3037529808952254 0
gene 1 1072 801 -0.67255807769138276 0 6440 -0.67255807769138276 1
gene 1 7 979 -1.032652370367503 0 6505 -1.032652370367503 1
gene 1 9 1596 4.3774328526935697 0 6709 4.3774328526935697 1
gene 1 3 1840 -2.5297340941288202 0 6813 -2.5297340941288202 0
gene 1 1840 24 1.1844094628628388 0 6814 1.1844094628628388 1
gene 1 1062 1918 -0.82077302604542246 0 7084 -0.82077302604542246 1
gene 1 1918 1630 -2.0758420972506713 0 7085 -2.0758420972506713 1
gene 1 1062 359 0.93959118991139856 0 7134 0.93959118991139856 1
gene 1 1125 2034 0.92405509060437585 0 7536 0.92405509060437585 1
gene 1 2034 1175 -1.7699499442102153 0 7537 -1.7699499442102153 1
gene 1 12 1840 0.60718107344917072 0 7711 0.60718107344917072 1
gene 1 344 2101 -1.3116375409411907 0 7759 -1.3116375409411907 0
gene 1 2101 622 -1.0082985690367869 0 7760 -1.0082985690367869 1
gene 1 5 17 3.0698681085695827 0 7803 3.0698681085695827 1
gene 1 3 2166 -0.76625042625993967 0 8004 -0.76625042625993967 1
gene 1 2166 24 2.9679256988656366 0 8005 2.9679256988656366 1
gene 1 801 13 1.618787199360685 0 8039 1.618787199360685 0
gene 1 359 1918 2.6821961430284174 0 8150 2.6821961430284174 1
gene 1 2166 1918 1.3589600534918529 0 8357 1.3589600534918529 1
gene 1 35 1219 2.869244919656424 0 8389 2.869244919656424 1
gene 1 3 1175 -2.6090877599590865 0 8396 -2.6090877599590865 1
gene 1 344 1072 -1.0031681464068443 0 8418 -1.0031681464068443 1
gene 1 5 1175 -2.4710306889242633 0 8457 -2.4710306889242633 0
gene 1 9 979 0.094673789662622743 0 8475 0.094673789662622743 1
gene 1 380 1840 -2.8884951692952288 0 8586 -2.8884951692952288 1
gene 1 1062 2338 1.2241712183338456 0 8669 1.2241712183338456 1
gene 1 2338 1591 -0.2963432913163413 0 8670 -0.2963432913163413 1
gene 1 1062 2355 -0.51957012760432908 0 8720 -0.51957012760432908 1
gene 1 2355 1072 -0.74748660430660774 0 8721 -0.74748660430660774 1
gene 1 7 1279 0.79172425870398255 0 8774 0.79172425870398255 1
gene 1 17 2374 3.9467001508673185 0 8792 3.9467001508673185 1
gene 1 2374 14 0.72010176311950291 0 8793 0.72010176311950291 1
gene 1 1 1072 2.1350991078815884 0 8806 2.1350991078815884 1
gene 1 445 1630 -0.95727705846413835 0 8862 -0.95727705846413835 1
gene 1 1125 2400 2.0766481989885905 0 8887 2.0766481989885905 1
gene 1 2400 1175 -3.7651992999088013 0 8888 -3.7651992999088013 1
gene 1 17 2405 1.699719016204341 0 8901 1.699719016204341 0
gene 1 2405 2374 1.1895911240436094 0 8902 1.1895911240436094 1
gene 1 1062 2410 2.5673211699199494 0 8918 2.5673211699199494 1
gene 1 2410 2338 0.91320150816496526 0 8919 0.91320150816496526 1
gene 1 1 2473 3.6768602328267228 0 9154 3.6768602328267228 1
gene 1 2473 445 1.6736054246307375 0 9155 1.6736054246307375 1
gene 1 2338 17 2.6599592290166574 0 9312 2.6599592290166574 1
gene 1 380 2400 -1.558474934454297 0 9480 -1.558474934454297 1
gene 1 979 1219 -3.4955688572933745 0 9488 -3.4955688572933745 1
gene 1 1 2615 1.2534672481722511 0 9669 1.2534672481722511 1
gene 1 2615 1072 -0.17209606238039959 0 9670 -0.17209606238039959 1
gene 1 2338 344 1.1902665852058056 0 9967 1.1902665852058056 1
gene 1 2410 2405 1.3077492406627858 0 9979 1.3077492406627858 1
gene 1 1062 2720 1.2192364880904725 0 10033 1.2192364880904725 1
gene 1 2720 1591 2.2635682313067687 0 10034 2.2635682313067687 1
gene 1 1596 2034 0.16253857606208832 0 10045 0.16253857606208832 1
gene 1 2410 2770 2.6054001974432728 0 10223 2.6054001974432728 1
gene 1 2770 2405 -2.0188929986296653 0 10224 -2.0188929986296653 1
gene 1 380 1125 0.7980370571129195 0 10275 0.7980370571129195 1
gene 1 10 2786 0.35268266198815923 0 10285 0.35268266198815923 1
gene 1 2786 17 2.7888510465570029 0 10286 2.7888510465570029 1
gene 1 2 2789 3.9347522677899116 0 10302 3.9347522677899116 1
gene 1 2789 13 -0.21235257955843237 0 10303 -0.21235257955843237 1
gene 1 2410 2789 -0.98742832941349057 0 10456 -0.98742832941349057 1
gene 1 2166 2789 0.79188966601709354 0 10538 0.79188966601709354 1
gene 1 5 979 -3.2086547425639136 0 10547 -3.2086547425639136 0
gene 1 24 2937 1 0 10822 1 1
gene 1 2937 669 -0.49642536239532076 0 10823 -0.49642536239532076 0
gene 1 2400 2374 -0.13446524270552451 0 10988 -0.13446524270552451 1
gene 1 6 2998 1.1755297026483014 0 11050 1.1755297026483014 1
gene 1 2998 14 3.8762780717929268 0 11051 3.8762780717929268 1
gene 1 1125 3030 2.1264104454901118 0 11173 2.1264104454901118 1
gene 1 3030 2400 1.3803593361193123 0 11174 1.3803593361193123 1
gene 1 8 3043 -0.024704810941920063 0 11223 -0.024704810941920063 1
gene 1 3043 359 1.18538832379756 0 11224 1.18538832379756 1
gene 1 801 14 0.24055654594700621 0 11317 0.24055654594700621 1
gene 1 1072 3079 1.4237108442111457 0 11390 1.4237108442111457 1
gene 1 3079 1125 1.442230152963768 0 11391 1.442230152963768 1
gene 1 5 2770 2.4495949609436067 0 11554 2.4495949609436067 1
gene 1 11 3147 1.0399375718738593 0 11630 1.0399375718738593 1
gene 1 3147 14 0.66594074672099057 0 11631 0.66594074672099057 1
gene 1 7 3164 0.2281257038135667 0 11695 0.2281257038135667 1
gene 1 3164 1279 1.1959790958538554 0 11696 1.1959790958538554 0
gene 1 1630 1175 -0.76532724325793211 0 11760 -0.76532724325793211 1
gene 1 3 3233 1.8654901719025756 0 11931 1.8654901719025756 1
gene 1 3233 344 -0.29452772835247554 0 11932 -0.29452772835247554 1
gene 1 2338 3235 5.1817177796651226 0 11939 5.1817177796651226 1
gene 1 3235 344 -0.95789169667190488 0 11940 -0.95789169667190488 1
gene 1 1125 3248 0.96015510077595478 0 11980 0.96015510077595478 0
gene 1 3248 2400 0.75001433582511456 0 11981 0.75001433582511456 1
gene 1 979 3079 0.91807797319166262 0 12068 0.91807797319166262 1
gene 1 9 3276 0.79724033726250765 0 12078 0.79724033726250765 1
gene 1 3276 1596 1.9788735598227352 0 12079 1.9788735598227352 1
gene 1 1 3281 1.154427510525299 0 12090 1.154427510525299 1
gene 1 3281 2473 2.772640138386115 0 12091 2.772640138386115 0
gene 1 979 3296 -1.9736772900324673 0 12155 -1.9736772900324673 1
gene 1 3296 1219 -1.6262527026358304 0 12156 -1.6262527026358304 1
gene 1 3281 462 0.73318032977784997 0 12171 0.73318032977784997 1
gene 1 1175 1840 -0.16684482883049404 0 12410 -0.16684482883049404 1
gene 1 1062 3369 7.5377644048946744 0 12420 7.5377644048946744 1
gene 1 3369 1918 -0.56174241069785424 0 12421 -0.56174241069785424 1
gene 1 7 3369 0.27291764564482385 0 12438 0.27291764564482385 0
gene 1 2770 1596 -1.2883603010738085 0 12658 -1.2883603010738085 0
gene 1 3030 1596 -0.44374711767013519 0 12717 -0.44374711767013519 1
gene 1 1125 2405 -0.84031963457368297 0 12740 -0.84031963457368297 1
gene 1 3079 3458 -1.458295680795934 0 12762 -1.458295680795934 1
gene 1 3458 1125 -0.41548817009454969 0 12763 -0.41548817009454969 1
gene 1 344 3502 0.15697625077188782 0 12922 0.15697625077188782 1
gene 1 3502 1072 -0.32733353615148625 0 12923 -0.32733353615148625 0
gene 1 10 2789 2.443310677839122 0 12953 2.443310677839122 1
gene 1 17 3523 0.25534877234853282 0 12999 0.25534877234853282 1
gene 1 3523 2374 -0.097815162547777945 0 13000 -0.097815162547777945 1
gene 1 2786 1175 1.2838452498818955 0 13074 1.2838452498818955 1
gene 1 1918 3502 1.657039016185812 0 13156 1.657039016185812 1
gene 1 3030 801 0.026389001182461624 0 13370 0.026389001182461624 0
gene 1 3079 3637 2.2985393119503463 0 13420 2.2985393119503463 1
gene 1 3637 3458 1 0 13421 1 0
gene 1 5 2789 -1.2913712802768551 0 13433 -1.2913712802768551 1
gene 1 1072 3659 3.3864997823659797 0 13497 3.3864997823659797 1
gene 1 3659 14 -0.46717305479905247 0 13498 -0.46717305479905247 1
gene 1 3235 979 1.0163838998490871 0 13607 1.0163838998490871 1
gene 1 2998 2374 -0.46314090931003016 0 14115 -0.46314090931003016 0
gene 1 3502 3147 -2.9901373078535016 0 14128 -2.9901373078535016 1
gene 1 3 801 -2.5854074689026025 0 14171 -2.5854074689026025 1
gene 1 8 3837 0.22614157443220795 0 14198 0.22614157443220795 1
gene 1 3837 380 1.2508376725400274 0 14199 1.2508376725400274 1
gene 1 6 3847 0.8968116548828835 0 14235 0.8968116548828835 1
gene 1 3847 1062 -2.2933251451204182 0 14236 -2.2933251451204182 1
gene 1 801 344 -2.2731252580290313 0 14250 -2.2731252580290313 1
gene 1 3847 2355 1.050727069867182 0 14284 1.050727069867182 1
gene 1 979 801 2.7500013604527345 0 14302 2.7500013604527345 1
gene 1 1591 24 -0.14371480939151476 0 14355 -0.14371480939151476 1
gene 1 17 3884 1.3956829844022556 0 14365 1.3956829844022556 1
gene 1 3884 3523 -2.1835348474716461 0 14366 -2.1835348474716461 0
gene 1 24 3891 0.13051714102296025 0 14392 0.13051714102296025 1
gene 1 3891 14 0.088032467529658431 0 14393 0.088032467529658431 1
gene 1 801 3897 -1.4014181180398062 0 14413 -1.4014181180398062 1
gene 1 3897 13 1.7190636670771349 0 14414 1.7190636670771349 1
gene 1 3 3920 -0.034526494627132198 0 14489 -0.034526494627132198 1
gene 1 3920 14 1.8876977867855214 0 14490 1.8876977867855214 1
gene 1 8 2410 -0.0037789712677611664 0 14546 -0.0037789712677611664 1
gene 1 3884 2998 0.40415685153759867 0 14698 0.40415685153759867 1
gene 1 2410 3458 -0.29603405636550584 0 14944 -0.29603405636550584 1
gene 1 3030 3884 0.18077402686736269 0 14965 0.18077402686736269 1
gene 1 1591 4070 1.174217199987833 0 15068 1.174217199987833 1
gene 1 4070 1175 -0.084364686433395675 0 15069 -0.084364686433395675 1
gene 1 1062 4089 1.1871166474125892 0 15134 1.1871166474125892 1
gene 1 4089 2338 1.4687044996622505 0 15135 1.4687044996622505 1
gene 1 2789 669 -0.019407129715851956 0 15715 -0.019407129715851956 1
gene 1 2789 3891 -0.45482468533088671 0 15779 -0.45482468533088671 1
gene 1 2770 1125 0.081937171324126951 0 15823 0.081937171324126951 1
gene 1 8 4292 -1.7103572871584245 0 15893 -1.7103572871584245 1
gene 1 4292 3043 3.0509169992762231 0 15894 3.0509169992762231 0
gene 1 2770 4299 1 0 15908 1 1
gene 1 4299 1596 -0.12414552125807177 0 15909 -0.12414552125807177 1
gene 1 8 4326 -1.4088573136408149 0 15995 -1.4088573136408149 1
gene 1 4326 2410 -0.40014843754477258 0 15996 -0.40014843754477258 1
gene 1 3281 3523 0.39993120795112624 0 16051 0.39993120795112624 1
gene 1 3920 1591 -3.3999719132669135 0 16052 -3.3999719132669135 1
gene 1 11 4332 1 0 16069 0 1
gene 1 4332 17 -3.6954137100351101 0 16070 0 1
gene 1 1596 4349 1 0 16150 0 1
gene 1 4349 24 0.74601198220439824 0 16151 0 1
gene 1 462 4358 1 0 16184 0 1
gene 1 4358 801 2.7620282673565804 0 16185 2.7620282673565804 1
gene 1 8 2374 0.049090767767788271 0 16207 0.049090767767788271 1
gene 1 3369 4070 2.7691210877006505 0 16406 2.7691210877006505 1
gene 1 3043 3920 1.0428758765770476 0 16443 1.0428758765770476 1
gene 1 2937 4449 0.35384609641220699 0 16481 0.35384609641220699 1
gene 1 4449 669 -0.49642536239532076 0 16482 0 1
gene 1 1630 4467 1 0 16551 0 1
gene 1 4467 1591 2.0184612856332498 0 16552 0 1
gene 1 3164 4471 2.3704563530955722 0 16569 2.3704563530955722 1
gene 1 4471 1279 3.4574324698920513 0 16570 3.4574324698920513 1
gene 1 4467 3276 0.62107834528250538 0 16763 0.62107834528250538 1
gene 1 7 4523 1 0 16777 0 1
gene 1 4523 3369 0.27291764564482385 0 16778 0 1
gene 1 4292 669 -0.066938549311337317 0 16792 -0.066938549311337317 1
gene 1 979 4532 1 0 16807 0 0
gene 1 4532 1219 -3.4955688572933745 0 16808 0 1
gene 1 1062 4553 1 0 16906 0 1
gene 1 4553 14 0.52322335654088581 0 16907 0 1
gene 1 4471 3235 -0.63626848377113621 0 17007 -0.63626848377113621 1
gene 1 2789 380 0.4599573437403689 0 17031 0.4599573437403689 1
gene 1 11 4599 1 0 17062 0 1
gene 1 4599 14 0.81384720037139169 0 17063 0 1
gene 1 2789 2998 -0.15224783734988787 0 17093 -0.15224783734988787 1
gene 1 10 3897 -0.71979721203436942 0 17104 -0.71979721203436942 1
gene 1 2101 4553 -0.63336918951634746 0 17124 -0.63336918951634746 1
gene 1 8 2937 -0.4437930693122526 0 17136 -0.4437930693122526 1
gene 1 4292 4627 1 0 17169 0 1
gene 1 4627 3043 3.0509169992762231 0 17170 0 1
gene 1 3920 2101 -0.074148308520274375 0 17240 -0.074148308520274375 1
gene 1 4292 3147 -0.26301685453533047 0 17280 -0.26301685453533047 1
gene 1 3030 4659 1 0 17298 0 1
gene 1 4659 801 0.026389001182461624 0 17299 0 1
gene 1 2374 2355 0.48985033318859073 0 17360 0.48985033318859073 1
gene 1 1918 2400 -0.49811215721914182 0 17434 -0.49811215721914182 1
gene 1 1125 4709 1 0 17463 0 0
gene 1 4709 3248 0.96015510077595478 0 17464 0 1
gene 1 1596 3079 0.99397194012718826 0 17546 0.99397194012718826 1
gene 1 3296 4467 -0.40282862465960373 0 17560 -0.40282862465960373 1
gene 1 3847 2374 -0.39932988043843298 0 17577 -0.39932988043843298 1
gene 1 1125 4744 1 0 17596 0 1
gene 1 4744 4709 1 0 17597 0 1
gene 1 1918 4467 0.82369965399787748 0 17619 0.82369965399787748 1
gene 1 1630 462 0.12773877015697713 0 17727 0.12773877015697713 1
gene 1 3847 4659 0.72875896456127942 0 17875 0.72875896456127942 1
gene 1 1062 2374 0.97780178486267189 0 17963 0.97780178486267189 1
gene 1 4299 3458 -0.67537013938434898 0 17994 -0.67537013938434898 1
gene 1 8 4902 1 0 18146 0 1
gene 1 4902 979 1.3393950211533321 0 18147 0 1
gene 1 2 4523 -0.70498353275702497 0 18178 -0.70498353275702497 1
gene 1 4467 1219 0.73778393759289007 0 18198 0.73778393759289007 1
gene 1 3043 2473 0.49760031723305598 0 18211 0.49760031723305598 1
genomeend 20
