genomestart 0
trait 1 0.0237171 0.0477276 0.77203 0.497493 0.150325 0.216623 0.489576 0.902514 
node 1 1 1 1
node 2 1 1 1
node 3 1 1 1
node 4 1 1 1
node 5 1 1 1
node 6 1 1 1
node 7 1 1 1
node 8 1 1 1
node 9 1 1 1
node 10 1 1 1
node 11 1 1 1
node 12 1 1 3
node 13 1 0 2
node 14 1 0 2
node 18 1 0 0
node 535 1 0 0
node 578 1 0 0
node 609 1 0 0
node 613 1 0 0
node 656 1 0 0
node 1005 1 0 0
node 1157 1 0 0
node 1287 1 0 0
node 1326 1 0 0
node 1347 1 0 0
node 1360 1 0 0
node 1397 1 0 0
node 1401 1 0 0
node 1479 1 0 0
node 1496 1 0 0
node 1560 1 0 0
node 1571 1 0 0
node 1592 1 0 0
node 1663 1 0 0
node 1691 1 0 0
node 1704 1 0 0
node 1766 1 0 0
node 1768 1 0 0
node 1837 1 0 0
node 1866 1 0 0
node 1899 1 0 0
node 2052 1 0 0
node 2063 1 0 0
node 2070 1 0 0
node 2086 1 0 0
node 2180 1 0 0
node 2276 1 0 0
node 2326 1 0 0
node 2400 1 0 0
node 2502 1 0 0
node 2527 1 0 0
node 2530 1 0 0
node 2542 1 0 0
node 2549 1 0 0
node 2555 1 0 0
node 2689 1 0 0
node 2715 1 0 0
node 2731 1 0 0
node 2776 1 0 0
node 2805 1 0 0
node 2815 1 0 0
node 2818 1 0 0
node 2840 1 0 0
node 2859 1 0 0
node 2914 1 0 0
node 2920 1 0 0
node 2961 1 0 0
node 2991 1 0 0
node 2999 1 0 0
node 3016 1 0 0
node 3027 1 0 0
node 3032 1 0 0
node 3038 1 0 0
node 3048 1 0 0
node 3058 1 0 0
node 3117 1 0 0
node 3127 1 0 0
node 3142 1 0 0
node 3185 1 0 0
node 3200 1 0 0
node 3213 1 0 0
node 3302 1 0 0
node 3336 1 0 0
node 3342 1 0 0
node 3373 1 0 0
node 3389 1 0 0
node 3398 1 0 0
node 3406 1 0 0
node 3480 1 0 0
node 3517 1 0 0
node 3546 1 0 0
node 3558 1 0 0
node 3580 1 0 0
node 3594 1 0 0
node 3608 1 0 0
node 3654 1 0 0
node 3660 1 0 0
node 3702 1 0 0
node 3712 1 0 0
node 3716 1 0 0
node 3724 1 0 0
node 3748 1 0 0
gene 1 1 13 -0.073499 0 1 -0.073499 0
gene 1 2 13 5.77848 0 2 5.77848 1
gene 1 3 13 6.14867 0 3 6.14867 1
gene 1 4 13 -2.11376 0 4 -2.11376 1
gene 1 5 13 5.03388 0 5 5.03388 1
gene 1 6 13 0.863143 0 6 0.863143 1
gene 1 7 13 0.503089 0 7 0.503089 1
gene 1 8 13 -5.58855 0 8 -5.58855 1
gene 1 9 13 1.12868 0 9 1.12868 1
gene 1 10 13 2.50406 0 10 2.50406 1
gene 1 11 13 -0.208308 0 11 -0.208308 1
gene 1 12 13 0.0563328 0 12 0.0563328 1
gene 1 1 14 -0.587257 0 13 -0.587257 1
gene 1 2 14 1.5812 0 14 1.5812 1
gene 1 3 14 2.10119 0 15 2.10119 0
gene 1 4 14 -1.13127 0 16 -1.13127 1
gene 1 5 14 -0.0253382 0 17 -0.0253382 0
gene 1 6 14 -0.842856 0 18 -0.842856 1
gene 1 7 14 -2.96982 0 19 -2.96982 1
gene 1 8 14 -0.76971 0 20 -0.76971 1
gene 1 9 14 1.85069 0 21 1.85069 0
gene 1 10 14 1.73853 0 22 1.73853 0
gene 1 11 14 3.92697 0 23 3.92697 1
gene 1 12 14 3.12094 0 24 3.12094 1
gene 1 4 18 0.41675 0 33 0.41675 1
gene 1 18 13 -0.855947 0 34 -0.855947 1
gene 1 9 18 -1.86816 0 170 -1.86816 1
gene 1 8 18 1.31452 0 190 1.31452 1
gene 1 14 18 1.3297 0 333 1.3297 1
gene 1 7 18 -1.79451 0 393 -1.79451 1
gene 1 10 18 0.867721 0 404 0.867721 1
gene 1 14 13 4.03953 0 438 4.03953 1
gene 1 5 18 -0.720519 0 478 -0.720519 1
gene 1 12 18 -4.05039 0 707 -4.05039 1
gene 1 2 18 -1.0252 0 1411 -1.0252 1
gene 1 3 18 0.963341 0 1878 0.963341 1
gene 1 1 535 -2.66424 0 1902 -2.66424 0
gene 1 535 13 -1.07295 0 1903 -1.07295 1
gene 1 3 535 4.21903 0 2052 4.21903 1
gene 1 3 578 -0.0127272 0 2074 -0.0127272 1
gene 1 578 18 1.56592 0 2075 1.56592 1
gene 1 6 578 -0.456355 0 2176 -0.456355 1
gene 1 535 578 1.01722 0 2190 1.01722 1
gene 1 535 609 -2.66764 0 2213 -2.66764 1
gene 1 609 578 0.321042 0 2214 0.321042 0
gene 1 578 613 0.264749 0 2225 0.264749 1
gene 1 613 18 0.541011 0 2226 0.541011 1
gene 1 578 13 1.04081 0 2260 1.04081 1
gene 1 4 609 2.59547 0 2285 2.59547 1
gene 1 9 535 -1.594 0 2300 -1.594 1
gene 1 1 18 1.66613 0 2314 1.66613 1
gene 1 3 656 3.72091 0 2376 3.72091 0
gene 1 656 14 -0.411274 0 2377 -0.411274 1
gene 1 609 18 2.27289 0 2386 2.27289 1
gene 1 578 656 1.28112 0 2511 1.28112 1
gene 1 5 609 -1.30148 0 2600 -1.30148 1
gene 1 609 13 -1.28015 0 2997 -1.28015 1
gene 1 12 609 0.987003 0 3210 0.987003 1
gene 1 535 14 0.031687 0 3366 0.031687 1
gene 1 8 1005 1 0 3662 0 1
gene 1 1005 18 1.31452 0 3663 0 1
gene 1 9 1157 1 0 4190 0 1
gene 1 1157 18 -1.86816 0 4191 0 1
gene 1 1005 613 0.72453 0 4466 0.72453 1
gene 1 11 18 0.453958 0 4481 0.453958 1
gene 1 609 1287 1 0 4658 0 0
gene 1 1287 578 0.321042 0 4659 0 1
gene 1 609 1326 1 0 4813 0 1
gene 1 1326 1287 1 0 4814 0 1
gene 1 1326 18 -0.404396 0 4841 -0.404396 1
gene 1 609 1347 1 0 4899 0 1
gene 1 1347 1326 1 0 4900 0 1
gene 1 14 1347 -0.882019 0 4939 -0.882019 1
gene 1 4 1360 1 0 4950 0 1
gene 1 1360 14 -1.13127 0 4951 0 1
gene 1 1157 609 -0.138945 0 4981 -0.138945 0
gene 1 535 613 0.494002 0 5017 0 1
gene 1 11 535 0.433756 0 5066 0.433756 1
gene 1 7 1360 0.141453 0 5081 0.141453 1
gene 1 10 1397 1 0 5096 0 1
gene 1 1397 14 1.73853 0 5097 0 1
gene 1 6 18 -0.942507 0 5114 -0.942507 1
gene 1 11 1401 1 0 5118 0 1
gene 1 1401 14 3.92697 0 5119 0 0
gene 1 5 613 0.868074 0 5202 0.868074 1
gene 1 13 1360 0.691266 0 5344 0.691266 1
gene 1 2 1479 1 0 5406 0 1
gene 1 1479 14 1.5812 0 5407 0 1
gene 1 1360 613 -0.284097 0 5431 -0.284097 1
gene 1 1397 1496 1 0 5474 0 1
gene 1 1496 14 1.73853 0 5475 0 0
gene 1 609 656 0.144103 0 5676 0.144103 1
gene 1 5 1560 1 0 5699 0 1
gene 1 1560 14 -0.0253382 0 5700 0 1
gene 1 10 1571 1 0 5747 0 1
gene 1 1571 18 0.867721 0 5748 0 1
gene 1 1397 1005 0.105518 0 5771 0.105518 1
gene 1 609 1592 1 0 5811 0 1
gene 1 1592 1326 1 0 5812 0 1
gene 1 613 1479 -0.273888 0 5842 -0.273888 1
gene 1 1360 1479 -0.354831 0 5948 -0.354831 1
gene 1 1571 1360 0.42005 0 6046 0.42005 1
gene 1 10 1663 1 0 6075 0 1
gene 1 1663 1571 1 0 6076 0 1
gene 1 1560 1496 -0.294414 0 6091 -0.294414 1
gene 1 3 1592 -0.882804 0 6153 -0.882804 0
gene 1 13 1691 1 0 6166 0 1
gene 1 1691 1360 0.691266 0 6167 0 1
gene 1 3 1704 1 0 6219 0 1
gene 1 1704 656 3.72091 0 6220 0 0
gene 1 1326 613 0.665897 0 6281 0.665897 1
gene 1 1347 1766 1 0 6417 0 1
gene 1 1766 1326 1 0 6418 0 1
gene 1 1663 1768 1 0 6429 0 1
gene 1 1768 1571 1 0 6430 0 1
gene 1 1592 1401 0.984166 0 6452 0.984166 1
gene 1 535 1479 -0.0557751 0 6578 -0.0557751 1
gene 1 1663 1837 1 0 6668 0 1
gene 1 1837 1768 1 0 6669 0 1
gene 1 535 1866 1 0 6757 0 0
gene 1 1866 1479 -0.0557751 0 6758 0 1
gene 1 613 1766 0.58784 0 6823 0.58784 1
gene 1 656 1157 0.0415959 0 6863 0.0415959 1
gene 1 1837 1899 1 0 6880 0 1
gene 1 1899 1768 1 0 6881 0 1
gene 1 1347 1592 -0.726727 0 6915 -0.726727 1
gene 1 9 1899 -0.324611 0 7180 -0.324611 1
gene 1 578 1479 -0.97432 0 7232 -0.97432 0
gene 1 1866 1347 -0.6886 0 7413 -0.6886 0
gene 1 18 1360 0.429198 0 7427 0.429198 0
gene 1 9 2052 1 0 7445 0 0
gene 1 2052 535 -1.594 0 7446 0 1
gene 1 2 2063 1 0 7482 0 1
gene 1 2063 14 1.5812 0 7483 0 1
gene 1 1326 2070 1 0 7509 0 1
gene 1 2070 613 0.665897 0 7510 0 1
gene 1 656 2086 1 0 7561 0 1
gene 1 2086 14 -0.411274 0 7562 0 1
gene 1 1 1479 0.167275 0 7636 0.167275 1
gene 1 1837 656 -0.942728 0 7713 -0.942728 1
gene 1 1 1663 -0.53618 0 7729 -0.53618 1
gene 1 2 1899 0.658945 0 7904 0.658945 1
gene 1 1560 2180 1 0 7918 0 1
gene 1 2180 14 -0.0253382 0 7919 0 1
gene 1 1397 18 -0.241608 0 7971 -0.241608 1
gene 1 1347 1496 -0.852391 0 8032 -0.852391 1
gene 1 1326 2276 1 0 8246 0 1
gene 1 2276 1287 1 0 8247 0 0
gene 1 2063 1663 -0.341938 0 8322 -0.341938 1
gene 1 1287 1768 0.315098 0 8431 0.315098 1
gene 1 14 2326 1 0 8446 0 0
gene 1 2326 1347 -0.882019 0 8447 0 1
gene 1 1560 1866 -0.397135 0 8620 -0.397135 1
gene 1 1326 2400 1 0 8704 0 1
gene 1 2400 2276 1 0 8705 0 1
gene 1 609 2326 -0.281438 0 9005 -0.281438 0
gene 1 1866 2502 1 0 9085 0 1
gene 1 2502 1479 -0.0557751 0 9086 0 1
gene 1 4 2527 1 0 9158 0 1
gene 1 2527 1360 1 0 9159 0 1
gene 1 1571 2530 1 0 9175 0 1
gene 1 2530 1360 0.42005 0 9176 0 1
gene 1 2070 1005 -0.611136 0 9189 -0.611136 1
gene 1 6 1899 -0.863864 0 9205 -0.863864 1
gene 1 8 2542 1 0 9224 0 1
gene 1 2542 1005 1 0 9225 0 1
gene 1 4 2549 1 0 9251 0 1
gene 1 2549 2527 1 0 9252 0 1
gene 1 1005 2555 1 0 9269 0 0
gene 1 2555 18 1.31452 0 9270 0 1
gene 1 14 2689 1 0 9758 0 1
gene 1 2689 2326 1 0 9759 0 0
gene 1 1571 2715 1 0 9855 0 1
gene 1 2715 1360 0.42005 0 9856 0 1
gene 1 1326 2731 1 0 9905 0 1
gene 1 2731 2276 1 0 9906 0 0
gene 1 13 2070 -0.944337 0 10056 -0.944337 1
gene 1 1560 2776 1 0 10078 0 1
gene 1 2776 1496 -0.294414 0 10079 0 1
gene 1 2776 1287 -0.782012 0 10146 -0.782012 1
gene 1 9 2805 1 0 10188 0 0
gene 1 2805 14 1.85069 0 10189 0 1
gene 1 11 2815 1 0 10222 0 1
gene 1 2815 1401 1 0 10223 0 1
gene 1 609 2818 1 0 10231 0 1
gene 1 2818 1326 1 0 10232 0 1
gene 1 1347 2840 1 0 10305 0 1
gene 1 2840 1766 1 0 10306 0 1
gene 1 1663 2859 1 0 10376 0 0
gene 1 2859 1571 1 0 10377 0 1
gene 1 613 2502 -0.349138 0 10400 -0.349138 1
gene 1 2555 2400 -0.705572 0 10427 -0.705572 1
gene 1 2731 1899 -0.594006 0 10550 -0.594006 1
gene 1 2555 2086 0.364313 0 10582 0.364313 1
gene 1 2326 1899 -0.220161 0 10602 -0.220161 1
gene 1 1401 2914 1 0 10614 0 1
gene 1 2914 14 3.92697 0 10615 0 0
gene 1 8 2920 1 0 10634 0 1
gene 1 2920 14 -0.76971 0 10635 0 1
gene 1 7 2276 0.0203224 0 10720 0.0203224 1
gene 1 1 2961 1 0 10791 0 0
gene 1 2961 535 -2.66424 0 10792 0 1
gene 1 1479 2914 -0.61042 0 10815 -0.61042 0
gene 1 609 2542 -0.111111 0 10902 -0.111111 1
gene 1 2555 2991 1 0 10911 0 1
gene 1 2991 2086 0.364313 0 10912 0 1
gene 1 1479 2999 1 0 10937 0 1
gene 1 2999 2914 -0.61042 0 10938 0 1
gene 1 11 3016 1 0 10994 0 1
gene 1 3016 18 0.453958 0 10995 0 1
gene 1 2326 2776 -0.895248 0 11016 -0.895248 1
gene 1 5 3027 1 0 11037 0 0
gene 1 3027 1560 1 0 11038 0 1
gene 1 1704 3032 1 0 11050 0 1
gene 1 3032 656 3.72091 0 11051 0 1
gene 1 3 3038 1 0 11067 0 0
gene 1 3038 1592 -0.882804 0 11068 0 1
gene 1 6 3048 1 0 11104 0 1
gene 1 3048 1899 -0.863864 0 11105 0 1
gene 1 2326 3058 1 0 11147 0 1
gene 1 3058 1899 -0.220161 0 11148 0 1
gene 1 1 3117 1 0 11356 0 1
gene 1 3117 1479 0.167275 0 11357 0 1
gene 1 2689 3127 1 0 11388 0 1
gene 1 3127 2326 1 0 11389 0 1
gene 1 2070 2991 -0.421236 0 11430 -0.421236 1
gene 1 5 3142 1 0 11443 0 1
gene 1 3142 3027 1 0 11444 0 1
gene 1 2052 3185 1 0 11585 0 1
gene 1 3185 535 -1.594 0 11586 0 1
gene 1 1560 3200 1 0 11639 0 1
gene 1 3200 2776 1 0 11640 0 1
gene 1 2731 3213 1 0 11674 0 1
gene 1 3213 1899 -0.594006 0 11675 0 1
gene 1 2689 2776 0.38579 0 11827 0.38579 1
gene 1 1479 3302 1 0 11996 0 1
gene 1 3302 2999 1 0 11997 0 1
gene 1 2776 2991 0.0603146 0 12020 0.0603146 1
gene 1 3302 2502 0.47383 0 12106 0.47383 1
gene 1 7 3336 1 0 12141 0 0
gene 1 3336 2276 0.0203224 0 12142 0 1
gene 1 1560 3342 1 0 12161 0 1
gene 1 3342 2776 1 0 12162 0 1
gene 1 3185 3032 0.292873 0 12171 0.292873 1
gene 1 2859 2502 0.51765 0 12222 0.51765 1
gene 1 1326 3373 1 0 12262 0 1
gene 1 3373 1287 1 0 12263 0 1
gene 1 2914 3389 1 0 12320 0 0
gene 1 3389 14 3.92697 0 12321 0 1
gene 1 2731 3398 1 0 12344 0 1
gene 1 3398 2276 1 0 12345 0 1
gene 1 5 3406 1 0 12372 0 1
gene 1 3406 14 -0.0253382 0 12373 0 1
gene 1 8 3480 1 0 12666 0 1
gene 1 3480 18 1.31452 0 12667 0 1
gene 1 8 3027 0.282457 0 12682 0.282457 1
gene 1 3117 3517 1 0 12810 0 1
gene 1 3517 1479 0.167275 0 12811 0 1
gene 1 18 2999 -0.400818 0 12857 -0.400818 1
gene 1 2815 2276 0.960621 0 12875 0.960621 1
gene 1 1 3546 1 0 12914 0 0
gene 1 3546 535 -2.66424 0 12915 0 1
gene 1 1866 3558 1 0 12960 0 1
gene 1 3558 1347 -0.6886 0 12961 0 1
gene 1 3 3580 1 0 13044 0 1
gene 1 3580 3038 1 0 13045 0 1
gene 1 609 3594 1 0 13101 0 1
gene 1 3594 2326 -0.281438 0 13102 0 1
gene 1 3038 3608 1 0 13152 0 1
gene 1 3608 1592 -0.882804 0 13153 0 1
gene 1 2400 2715 -0.0653926 0 13284 -0.0653926 1
gene 1 1 3654 1 0 13330 0 1
gene 1 3654 3546 1 0 13331 0 1
gene 1 535 3660 1 0 13346 0 1
gene 1 3660 1866 1 0 13347 0 1
gene 1 2805 3373 -0.108826 0 13384 -0.108826 1
gene 1 2549 1560 -0.182762 0 13413 -0.182762 1
gene 1 3048 3558 0.190453 0 13425 0.190453 1
gene 1 1496 1837 0.631733 0 13437 0.631733 1
gene 1 1663 3702 1 0 13517 0 1
gene 1 3702 2859 1 0 13518 0 1
gene 1 2276 3712 1 0 13550 0 1
gene 1 3712 1287 1 0 13551 0 1
gene 1 7 3716 1 0 13570 0 1
gene 1 3716 3336 1 0 13571 0 1
gene 1 9 3724 1 0 13592 0 1
gene 1 3724 2805 1 0 13593 0 1
gene 1 3127 2400 -0.176586 0 13618 -0.176586 1
gene 1 2961 3142 -0.631862 0 13699 -0.631862 1
gene 1 18 3748 1 0 13712 0 1
gene 1 3748 1360 0.429198 0 13713 0 1
gene 1 578 1401 0.780011 0 13883 0.780011 1
gene 1 3660 3724 0.849584 0 13897 0.849584 1
gene 1 1287 2805 0.63853 0 13922 0.63853 1
genomeend 0
