genomestart 0
trait 1 0.354578 0.456352 0.00320516 0.759967 0.0712667 0.249062 0.968851 0.972425 
node 1 1 1 1
node 2 1 1 1
node 3 1 1 1
node 4 1 1 1
node 5 1 1 1
node 6 1 1 1
node 7 1 1 1
node 8 1 1 1
node 9 1 1 1
node 10 1 1 1
node 11 1 1 1
node 12 1 1 3
node 13 1 0 2
node 14 1 0 2
node 22 1 0 0
node 29 1 0 0
node 220 1 0 0
node 233 1 0 0
node 236 1 0 0
node 246 1 0 0
node 289 1 0 0
node 373 1 0 0
node 495 1 0 0
node 558 1 0 0
node 566 1 0 0
node 571 1 0 0
node 672 1 0 0
node 758 1 0 0
node 803 1 0 0
node 861 1 0 0
node 862 1 0 0
node 875 1 0 0
node 1026 1 0 0
node 1107 1 0 0
node 1153 1 0 0
node 1162 1 0 0
node 1189 1 0 0
node 1260 1 0 0
node 1277 1 0 0
node 1349 1 0 0
node 1365 1 0 0
node 1416 1 0 0
node 1518 1 0 0
node 1632 1 0 0
node 1657 1 0 0
node 1706 1 0 0
node 1817 1 0 0
node 1832 1 0 0
node 2004 1 0 0
node 2025 1 0 0
node 2049 1 0 0
node 2068 1 0 0
node 2187 1 0 0
node 2200 1 0 0
node 2279 1 0 0
node 2286 1 0 0
node 2413 1 0 0
node 2420 1 0 0
node 2519 1 0 0
node 2550 1 0 0
node 2662 1 0 0
node 2704 1 0 0
node 2721 1 0 0
node 2730 1 0 0
node 2888 1 0 0
node 2908 1 0 0
node 2914 1 0 0
node 2921 1 0 0
node 2993 1 0 0
node 3072 1 0 0
node 3215 1 0 0
node 3355 1 0 0
node 3420 1 0 0
node 3424 1 0 0
node 3444 1 0 0
node 3455 1 0 0
node 3512 1 0 0
node 3536 1 0 0
node 3549 1 0 0
node 3561 1 0 0
node 3572 1 0 0
node 3578 1 0 0
node 3680 1 0 0
node 3693 1 0 0
node 3788 1 0 0
node 3800 1 0 0
node 3914 1 0 0
node 4044 1 0 0
node 4052 1 0 0
node 4079 1 0 0
node 4168 1 0 0
node 4172 1 0 0
node 4192 1 0 0
node 4209 1 0 0
node 4256 1 0 0
node 4259 1 0 0
node 4277 1 0 0
node 4280 1 0 0
node 4287 1 0 0
node 4292 1 0 0
node 4300 1 0 0
node 4305 1 0 0
node 4349 1 0 0
node 4399 1 0 0
node 4500 1 0 0
node 4540 1 0 0
node 4558 1 0 0
node 4592 1 0 0
gene 1 1 13 0.051330968109579322 0 1 0.051330968109579322 1
gene 1 2 13 -8 0 2 -8 1
gene 1 3 13 -3.6157608378402717 0 3 -3.6157608378402717 1
gene 1 4 13 -2.444135435691166 0 4 -2.444135435691166 1
gene 1 5 13 -0.83586365681181873 0 5 -0.83586365681181873 1
gene 1 6 13 0.94638680405746545 0 6 0.94638680405746545 1
gene 1 7 13 -0.71418007300895625 0 7 -0.71418007300895625 1
gene 1 8 13 -8 0 8 -8 1
gene 1 9 13 -3.2826494049200079 0 9 -3.2826494049200079 0
gene 1 10 13 -1.3854998996646615 0 10 -1.3854998996646615 1
gene 1 11 13 0.14732866075231166 0 11 0.14732866075231166 1
gene 1 12 13 -1.052534250054757 0 12 -1.052534250054757 1
gene 1 1 14 3.5392476121844947 0 13 3.5392476121844947 1
gene 1 2 14 1.6569244596208099 0 14 1.6569244596208099 1
gene 1 3 14 3.5145782597896549 0 15 3.5145782597896549 1
gene 1 4 14 -0.86101349427411922 0 16 -0.86101349427411922 1
gene 1 5 14 3.1828103107553023 0 17 3.1828103107553023 1
gene 1 6 14 -3.9654285442388759 0 18 -3.9654285442388759 1
gene 1 7 14 -5.1959786767121301 0 19 -5.1959786767121301 1
gene 1 8 14 1.3924051361123126 0 20 1.3924051361123126 1
gene 1 9 14 4.8775237641658276 0 21 4.8775237641658276 1
gene 1 10 14 8 0 22 8 1
gene 1 11 14 6.7513883819577236 0 23 6.7513883819577236 1
gene 1 12 14 5.8481411346458545 0 24 5.8481411346458545 1
gene 1 5 22 3.5135934498107964 0 41 3.5135934498107964 0
gene 1 22 13 0.7990523452866134 0 42 0.7990523452866134 0
gene 1 1 29 1.5072754066471357 0 77 1.5072754066471357 0
gene 1 29 14 1.7573596506646647 0 78 1.7573596506646647 1
gene 1 11 22 6.4957834517097952 0 106 6.4957834517097952 1
gene 1 22 14 6.3489007798018413 0 190 6.3489007798018413 0
gene 1 14 13 -3.4424597784143227 0 265 -3.4424597784143227 1
gene 1 8 29 2.0363005089044104 0 495 2.0363005089044104 1
gene 1 2 22 -4.7763210248557488 0 502 -4.7763210248557488 1
gene 1 13 29 -3.2096738471694635 0 621 -3.2096738471694635 1
gene 1 11 29 4.7566192609055982 0 702 4.7566192609055982 1
gene 1 8 22 1.5710891160979352 0 752 1.5710891160979352 1
gene 1 8 220 2.4788027584919718 0 776 2.4788027584919718 1
gene 1 220 22 1.2087109526427049 0 777 1.2087109526427049 1
gene 1 13 233 -3.8025311964110151 0 812 -3.8025311964110151 1
gene 1 233 29 -3.5456882200882247 0 813 -3.5456882200882247 1
gene 1 9 236 2.5389687183028871 0 825 2.5389687183028871 1
gene 1 236 14 -1.500633974978995 0 826 -1.500633974978995 1
gene 1 3 246 0.5547139777591048 0 855 0.5547139777591048 1
gene 1 246 14 6.0244450878931417 0 856 6.0244450878931417 1
gene 1 7 220 5.8740000879736618 0 907 5.8740000879736618 1
gene 1 1 289 2.4922485982497449 0 1002 2.4922485982497449 0
gene 1 289 13 -4.3122155489922571 0 1003 -4.3122155489922571 1
gene 1 289 14 6.9786261328396506 0 1049 6.9786261328396506 1
gene 1 246 22 0.82104732283439819 0 1226 0.82104732283439819 1
gene 1 10 289 0.63587194748030584 0 1266 0.63587194748030584 1
gene 1 5 233 2.6806923866647727 0 1313 2.6806923866647727 1
gene 1 11 373 3.9926567774231807 0 1321 3.9926567774231807 1
gene 1 373 22 0.77859666141615991 0 1322 0.77859666141615991 1
gene 1 2 246 0.54961256405786252 0 1610 0.54961256405786252 0
gene 1 11 246 2.9668046584198269 0 1637 2.9668046584198269 1
gene 1 373 495 -4.4373214788908699 0 1824 -4.4373214788908699 0
gene 1 495 22 -0.87748680723714023 0 1825 -0.87748680723714023 1
gene 1 12 22 -0.87248383167781118 0 1901 -0.87248383167781118 1
gene 1 289 236 -0.82939598272992121 0 2004 -0.82939598272992121 1
gene 1 12 495 -0.095240786436591729 0 2022 -0.095240786436591729 1
gene 1 220 558 -2.0660940444870359 0 2086 -2.0660940444870359 1
gene 1 558 22 2.6354759967585446 0 2087 2.6354759967585446 1
gene 1 373 566 1.4283519635109005 0 2118 1.4283519635109005 1
gene 1 566 495 2.0857062400717785 0 2119 2.0857062400717785 1
gene 1 11 571 4.7702965297597908 0 2141 4.7702965297597908 1
gene 1 571 246 -3.6762017756589693 0 2142 -3.6762017756589693 1
gene 1 10 558 4.4409083514664829 0 2285 4.4409083514664829 1
gene 1 8 495 -3.113392890763186 0 2321 -3.113392890763186 1
gene 1 2 672 -0.13082295038309977 0 2507 -0.13082295038309977 1
gene 1 672 14 -3.089970630379379 0 2508 -3.089970630379379 0
gene 1 12 246 2.6626200909086593 0 2744 2.6626200909086593 1
gene 1 558 566 -0.36578890428216626 0 2756 -0.36578890428216626 1
gene 1 7 289 -2.0844066629113658 0 2806 -2.0844066629113658 0
gene 1 10 758 -1.8596500615867084 0 2818 -1.8596500615867084 1
gene 1 758 289 0.81560623050462766 0 2819 0.81560623050462766 1
gene 1 246 672 0.11700830409164004 0 2852 0.11700830409164004 1
gene 1 558 246 -2.2338608908624669 0 2876 -2.2338608908624669 1
gene 1 2 803 1.7294097566648432 0 2966 1.7294097566648432 1
gene 1 803 22 -1.1320385302566174 0 2967 -1.1320385302566174 1
gene 1 6 373 2.315216314846285 0 3128 2.315216314846285 1
gene 1 5 558 -0.54194000691265798 0 3138 -0.54194000691265798 0
gene 1 6 495 0.8237212724162829 0 3184 0.8237212724162829 1
gene 1 1 861 -2.5397988151944233 0 3214 -2.5397988151944233 1
gene 1 861 289 4.8141296289926991 0 3215 4.8141296289926991 1
gene 1 373 862 2.208279451685156 0 3218 2.208279451685156 1
gene 1 862 566 2.5476116904744925 0 3219 2.5476116904744925 0
gene 1 758 29 -0.14439164630341872 0 3266 -0.14439164630341872 1
gene 1 6 875 4.3731967216232777 0 3274 4.3731967216232777 1
gene 1 875 373 2.8180147178554975 0 3275 2.8180147178554975 1
gene 1 3 861 -0.2034805228949898 0 3288 -0.2034805228949898 1
gene 1 289 246 -3.2139116301266064 0 3396 -3.2139116301266064 1
gene 1 672 13 0.54680061421673765 0 3439 0.54680061421673765 1
gene 1 566 236 -1.7021312201871213 0 3584 -1.7021312201871213 0
gene 1 758 672 -1.3495047388828847 0 3627 -1.3495047388828847 1
gene 1 495 220 1.9329917004951234 0 3773 1.9329917004951234 0
gene 1 803 246 0.96540867964057653 0 3794 0.96540867964057653 1
gene 1 22 1026 -1.5528824043240781 0 3856 -1.5528824043240781 0
gene 1 1026 13 0.42635925385465767 0 3857 0.42635925385465767 1
gene 1 1 672 -1.3339934308705823 0 3942 -1.3339934308705823 1
gene 1 875 571 -0.75957942286486702 0 4063 -0.75957942286486702 1
gene 1 672 236 0.55299729153187815 0 4104 0.55299729153187815 1
gene 1 289 220 0.74062800432584597 0 4110 0.74062800432584597 0
gene 1 4 1107 2.2803198608012494 0 4127 2.2803198608012494 0
gene 1 1107 14 -3.0708746533239597 0 4128 -3.0708746533239597 1
gene 1 8 1153 -1.6163115370163283 0 4329 -1.6163115370163283 1
gene 1 1153 495 0.2418383607835688 0 4330 0.2418383607835688 1
gene 1 3 233 -1.1524935912119658 0 4346 -1.1524935912119658 1
gene 1 373 1162 2.6826211965096283 0 4361 2.6826211965096283 1
gene 1 1162 495 0.46673253400564763 0 4362 0.46673253400564763 1
gene 1 8 1189 -0.39277568421921483 0 4476 -0.39277568421921483 1
gene 1 1189 29 1.9809656870928425 0 4477 1.9809656870928425 1
gene 1 14 861 4.1174505679483762 0 4689 4.1174505679483762 0
gene 1 1 1260 -1.9969147115000125 0 4761 -1.9969147115000125 1
gene 1 1260 672 1.7535932243585552 0 4762 1.7535932243585552 1
gene 1 1 1277 -0.93222598756301467 0 4810 -0.93222598756301467 1
gene 1 1277 1260 3.1478096694442486 0 4811 3.1478096694442486 1
gene 1 1260 1349 -1.1303147061869103 0 5064 -1.1303147061869103 1
gene 1 1349 672 1.3296660814106771 0 5065 1.3296660814106771 1
gene 1 672 1365 -1.14120541333277 0 5118 -1.14120541333277 1
gene 1 1365 236 3.0901566732163337 0 5119 3.0901566732163337 1
gene 1 289 672 -2.9425571250461768 0 5229 -2.9425571250461768 1
gene 1 236 1349 0.53550966723612969 0 5284 0.53550966723612969 1
gene 1 1026 1416 -0.31318902555535949 0 5305 -0.31318902555535949 0
gene 1 1416 13 -0.018339490992175661 0 5306 -0.018339490992175661 0
gene 1 1277 566 -0.45768906975057377 0 5397 -0.45768906975057377 1
gene 1 1153 236 -2.7111073012981128 0 5433 -2.7111073012981128 1
gene 1 1189 861 2.6888445364725051 0 5503 2.6888445364725051 1
gene 1 7 566 -0.56538277234201417 0 5517 -0.56538277234201417 1
gene 1 14 875 2.5468761021489632 0 5548 2.5468761021489632 0
gene 1 11 236 2.8729634802196937 0 5608 2.8729634802196937 1
gene 1 3 1518 1.505584407274418 0 5721 1.505584407274418 1
gene 1 1518 861 -0.34410268130903243 0 5722 -0.34410268130903243 1
gene 1 1260 14 -4.5643748354932177 0 5807 -4.5643748354932177 1
gene 1 861 1365 -1.3026036528416927 0 5856 -1.3026036528416927 1
gene 1 233 1365 1.644418045433433 0 6214 1.644418045433433 1
gene 1 1260 1632 -0.69585160193771634 0 6234 -0.69585160193771634 1
gene 1 1632 1349 1.7090387638234714 0 6235 1.7090387638234714 1
gene 1 1189 862 -2.9429508912111402 0 6262 -2.9429508912111402 1
gene 1 1277 1657 3.2751740626409527 0 6313 3.2751740626409527 1
gene 1 1657 566 1.6232852226231647 0 6314 1.6232852226231647 1
gene 1 5 495 -3.6513186659902885 0 6336 -3.6513186659902885 1
gene 1 22 1416 -3.1023907831415491 0 6343 -3.1023907831415491 1
gene 1 495 672 -1.3010603805077543 0 6385 -1.3010603805077543 1
gene 1 29 1349 -1.4037949041481106 0 6456 -1.4037949041481106 1
gene 1 236 1706 0.081708768886378236 0 6477 0.081708768886378236 1
gene 1 1706 14 -4.573961133404616 0 6478 -4.573961133404616 1
gene 1 862 1277 1.651094005001287 0 6552 1.651094005001287 1
gene 1 861 236 -0.83307039022122975 0 6578 -0.83307039022122975 1
gene 1 220 1162 -0.60486780163127352 0 6592 -0.60486780163127352 0
gene 1 803 1277 1.6516636045890225 0 6622 1.6516636045890225 0
gene 1 236 1026 1.9657994773079637 0 6785 1.9657994773079637 1
gene 1 22 1817 -0.61844621245676934 0 6853 -0.61844621245676934 1
gene 1 1817 1416 0.82778333352309785 0 6854 0.82778333352309785 1
gene 1 1277 1832 4.0571999945944173 0 6903 4.0571999945944173 1
gene 1 1832 1657 3.2626141605258985 0 6904 3.2626141605258985 1
gene 1 1 233 -3.0178334093270047 0 7057 -3.0178334093270047 1
gene 1 22 862 -0.26717101236207924 0 7089 -0.26717101236207924 0
gene 1 1832 1365 1.4182942000302925 0 7203 1.4182942000302925 1
gene 1 9 1706 0.5611412520339436 0 7381 0.5611412520339436 1
gene 1 220 566 1.2999216424766562 0 7415 1.2999216424766562 1
gene 1 1706 875 0.57263658119953986 0 7456 0.57263658119953986 1
gene 1 236 2004 -2.8787023947475023 0 7554 -2.8787023947475023 1
gene 1 2004 1026 -2.2488890642527903 0 7555 -2.2488890642527903 1
gene 1 495 2025 -0.28046161359197519 0 7639 -0.28046161359197519 1
gene 1 2025 22 0.20410833982942078 0 7640 0.20410833982942078 0
gene 1 22 2049 0.61321058618519952 0 7744 0.61321058618519952 1
gene 1 2049 1026 3.418996543725485 0 7745 3.418996543725485 1
gene 1 233 558 2.2028879806412789 0 7769 2.2028879806412789 1
gene 1 22 1632 -4.0687788179464537 0 7822 -4.0687788179464537 0
gene 1 233 2068 -0.96815283101431671 0 7845 -0.96815283101431671 0
gene 1 2068 29 -0.51424148842424211 0 7846 -0.51424148842424211 1
gene 1 1277 2049 -1.7095038733955024 0 7879 -1.7095038733955024 1
gene 1 2025 558 -1.4168656026091733 0 8121 -1.4168656026091733 1
gene 1 758 1189 1.724515263142304 0 8250 1.724515263142304 1
gene 1 1277 2187 1.2329411392253551 0 8290 1.2329411392253551 1
gene 1 2187 1260 1.0620327108828505 0 8291 1.0620327108828505 1
gene 1 1189 1365 0.77174443843390061 0 8320 0.77174443843390061 1
gene 1 803 2200 -1.1725057571067037 0 8338 -1.1725057571067037 1
gene 1 2200 246 0.6003788032570756 0 8339 0.6003788032570756 1
gene 1 1260 2279 -0.55265899177298827 0 8627 -0.55265899177298827 1
gene 1 2279 1349 -2.4406550739149822 0 8628 -2.4406550739149822 0
gene 1 10 233 -4.011614385904565 0 8668 -4.011614385904565 1
gene 1 1189 2286 -0.006046055912061532 0 8682 -0.006046055912061532 1
gene 1 2286 29 4.7794145978425693 0 8683 4.7794145978425693 1
gene 1 1349 1832 -0.12979706867122887 0 8699 -0.12979706867122887 1
gene 1 1657 246 2.26342705905597 0 8746 2.26342705905597 1
gene 1 2 1518 -1.4901357546868437 0 8774 -1.4901357546868437 1
gene 1 220 2187 -1.7343340478531708 0 8950 -1.7343340478531708 1
gene 1 1107 1632 1.3827760123567541 0 9064 1.3827760123567541 1
gene 1 1153 1189 -2.8086593456606659 0 9087 -2.8086593456606659 1
gene 1 862 2413 0.61473935740754915 0 9161 0.61473935740754915 1
gene 1 2413 566 1.4390195885854862 0 9162 1.4390195885854862 1
gene 1 22 2420 -1.0655574771880905 0 9186 -1.0655574771880905 1
gene 1 2420 2049 0.046354569888838792 0 9187 0.046354569888838792 0
gene 1 1162 1632 2.2251527697896365 0 9365 2.2251527697896365 1
gene 1 558 2200 -0.0097235231705585234 0 9380 -0.0097235231705585234 0
gene 1 1817 1277 0.20452302824916457 0 9510 0.20452302824916457 1
gene 1 2049 803 -1.5020050765490183 0 9572 -1.5020050765490183 1
gene 1 1706 2519 0.24242152229064229 0 9586 0.24242152229064229 1
gene 1 2519 875 2.4020642360681963 0 9587 2.4020642360681963 1
gene 1 495 2187 3.6253749639845334 0 9618 3.6253749639845334 1
gene 1 803 861 1.9334420344482373 0 9661 1.9334420344482373 1
gene 1 558 1832 0.57780003085630005 0 9670 0.57780003085630005 0
gene 1 236 2550 -0.97259560235431208 0 9690 -0.97259560235431208 1
gene 1 2550 2004 -2.0255439209870736 0 9691 -2.0255439209870736 1
gene 1 11 2662 -0.2673585418925426 0 10088 -0.2673585418925426 1
gene 1 2662 29 3.080310860127355 0 10089 3.080310860127355 1
gene 1 495 13 1.0152750967141591 0 10113 1.0152750967141591 1
gene 1 2187 1349 0.59857731973686112 0 10149 0.59857731973686112 1
gene 1 1260 2704 -0.14075239316595356 0 10245 -0.14075239316595356 1
gene 1 2704 2279 2.9913827544969425 0 10246 2.9913827544969425 1
gene 1 289 2721 3.8044541859088716 0 10308 3.8044541859088716 1
gene 1 2721 246 -2.8979041808740718 0 10309 -2.8979041808740718 1
gene 1 11 2730 3.2122653505822019 0 10341 3.2122653505822019 0
gene 1 2730 236 1.8509341141911846 0 10342 1.8509341141911846 1
gene 1 246 1632 1.2336938669596302 0 10388 1.2336938669596302 1
gene 1 13 236 -2.3771195422751452 0 10426 -2.3771195422751452 1
gene 1 8 1416 1.3272219858724725 0 10443 1.3272219858724725 1
gene 1 1189 2187 -0.99163698609528916 0 10877 -0.99163698609528916 1
gene 1 22 2888 -1.712360832054336 0 10956 -1.712360832054336 1
gene 1 2888 862 0.8881446469985621 0 10957 0.8881446469985621 1
gene 1 289 2908 1.5570559977353811 0 11011 1.5570559977353811 1
gene 1 2908 220 0.19051653276687319 0 11012 0.19051653276687319 0
gene 1 1416 2914 -0.20292818416046354 0 11030 -0.20292818416046354 1
gene 1 2914 13 -2.1826097549789636 0 11031 -2.1826097549789636 1
gene 1 1657 2921 0.66464547257155437 0 11056 0.66464547257155437 1
gene 1 2921 566 1.7955024265663242 0 11057 1.7955024265663242 1
gene 1 862 2200 2.4678830735701522 0 11102 2.4678830735701522 1
gene 1 1 2993 -1.6811824805481277 0 11320 -1.6811824805481277 1
gene 1 2993 14 4.2627636479738928 0 11321 4.2627636479738928 1
gene 1 2519 2025 -0.76900562391104443 0 11524 -0.76900562391104443 0
gene 1 1 373 0.59433755604286553 0 11608 0.59433755604286553 1
gene 1 373 3072 3.7590441005113737 0 11622 3.7590441005113737 1
gene 1 3072 495 -0.95534519821188635 0 11623 -0.95534519821188635 1
gene 1 1153 2914 -0.70686841826274449 0 11638 -0.70686841826274449 0
gene 1 12 1107 -0.19823466893203301 0 12076 -0.19823466893203301 1
gene 1 2921 2888 -0.10494378493397671 0 12098 -0.10494378493397671 1
gene 1 236 3215 -0.73399684305023261 0 12158 -0.73399684305023261 1
gene 1 3215 1349 -0.1119757878184206 0 12159 -0.1119757878184206 0
gene 1 2413 861 1.2157920087761207 0 12521 1.2157920087761207 1
gene 1 2420 1657 -0.51714513148979524 0 12567 -0.51714513148979524 1
gene 1 2730 2279 -1.055615006226867 0 12622 -1.055615006226867 1
gene 1 6 571 -2.0906089353797066 0 12647 -2.0906089353797066 1
gene 1 8 3355 -0.29932497129744151 0 12669 -0.29932497129744151 1
gene 1 3355 14 -0.80167461382303129 0 12670 -0.80167461382303129 1
gene 1 1260 246 -3.4114437328704832 0 12684 -3.4114437328704832 1
gene 1 3215 1365 -0.68432003691993648 0 12725 -0.68432003691993648 1
gene 1 2279 1817 0.69088870132849012 0 12765 0.69088870132849012 1
gene 1 2 3420 -0.15548174397809511 0 12917 -0.15548174397809511 1
gene 1 3420 246 0.45174916030454881 0 12918 0.45174916030454881 1
gene 1 373 3424 -0.38373848729940985 0 12933 -0.38373848729940985 1
gene 1 3424 862 1.6562185668182645 0 12934 1.6562185668182645 1
gene 1 3072 3215 0.97590787400300982 0 12995 0.97590787400300982 0
gene 1 1026 3444 2.8271264857738867 0 13025 2.8271264857738867 1
gene 1 3444 1416 -1.1037221524416103 0 13026 -1.1037221524416103 1
gene 1 672 3455 -1.6699144632881104 0 13073 -1.6699144632881104 1
gene 1 3455 14 1.8109668307755926 0 13074 1.8109668307755926 1
gene 1 1153 2413 0.016995880201922664 0 13101 0.016995880201922664 1
gene 1 495 236 2.3613813895552331 0 13255 2.3613813895552331 1
gene 1 220 3512 2.2956374377457598 0 13270 2.2956374377457598 1
gene 1 3512 1162 -3.1175065771292454 0 13271 -3.1175065771292454 1
gene 1 862 3536 3.7691359067192001 0 13365 3.7691359067192001 1
gene 1 3536 2200 1.1798677580337356 0 13366 1.1798677580337356 1
gene 1 9 3072 0.34845043353198579 0 13385 0.34845043353198579 1
gene 1 495 3549 -0.24060479385806466 0 13400 -0.24060479385806466 1
gene 1 3549 220 -2.9349071375722557 0 13401 -2.9349071375722557 1
gene 1 7 2420 -1.5516629664933601 0 13460 -1.5516629664933601 1
gene 1 220 3561 0.8901832015673552 0 13477 0.8901832015673552 1
gene 1 3561 558 1.2096751216378412 0 13478 1.2096751216378412 1
gene 1 3072 3572 2.0539572618221662 0 13516 2.0539572618221662 1
gene 1 3572 3215 3.3844517516831174 0 13517 3.3844517516831174 1
gene 1 2279 3578 1.6822270856621802 0 13537 1.6822270856621802 0
gene 1 3578 1349 0.22932964089760999 0 13538 0.22932964089760999 1
gene 1 3578 236 -0.67149292662343607 0 13557 -0.67149292662343607 1
gene 1 862 3215 1.6035210271382336 0 13731 1.6035210271382336 1
gene 1 2730 861 0.42753455249012196 0 13871 0.42753455249012196 1
gene 1 2921 3680 -0.45321519842986718 0 13911 -0.45321519842986718 1
gene 1 3680 566 -0.64291662510620262 0 13912 -0.64291662510620262 1
gene 1 10 3693 1 0 13973 1 1
gene 1 3693 14 0.90887493086460736 0 13974 0.90887493086460736 0
gene 1 29 22 0.49337894287583367 0 14016 0.49337894287583367 1
gene 1 3355 3444 0.42017880520791684 0 14048 0.42017880520791684 1
gene 1 672 3444 -0.028019845312470495 0 14299 -0.028019845312470495 1
gene 1 22 3788 1.7773068444697684 0 14352 1.7773068444697684 1
gene 1 3788 862 0.26400099893286871 0 14353 0.26400099893286871 1
gene 1 29 1832 -0.5730044900313972 0 14369 -0.5730044900313972 1
gene 1 5 3800 2.5111844515945689 0 14403 2.5111844515945689 1
gene 1 3800 558 -2.2484748794922953 0 14404 -2.2484748794922953 1
gene 1 7 3444 2.1673110532422135 0 14570 2.1673110532422135 1
gene 1 1260 3788 -0.79668589904750042 0 14779 -0.79668589904750042 1
gene 1 2049 2888 0.96768880959958237 0 14818 0.96768880959958237 1
gene 1 672 3914 0.080580410026284119 0 14831 0.080580410026284119 0
gene 1 3914 3444 -0.71989462185646158 0 14832 -0.71989462185646158 1
gene 1 233 2187 1.1888110015489213 0 15105 1.1888110015489213 1
gene 1 3215 3355 0.033976757355954845 0 15122 0.033976757355954845 1
gene 1 3455 3914 2.6852468937101062 0 15156 2.6852468937101062 1
gene 1 13 2279 -0.25884885064272622 0 15227 -0.25884885064272622 1
gene 1 2519 4044 -1.7378355777532959 0 15321 -1.7378355777532959 1
gene 1 4044 2025 1.9386303576355011 0 15322 1.9386303576355011 1
gene 1 3215 4052 1.2580170762064014 0 15349 1.2580170762064014 0
gene 1 4052 1349 -2.7463775278750702 0 15350 -2.7463775278750702 1
gene 1 10 22 1.7878725428077729 0 15398 1.7878725428077729 1
gene 1 233 4079 1 0 15444 1 1
gene 1 4079 558 0.83695442538566622 0 15445 0.83695442538566622 1
gene 1 2993 1832 3.1152618512116663 0 15467 3.1152618512116663 1
gene 1 3693 2279 1.9762476755195517 0 15626 1.9762476755195517 0
gene 1 1026 3536 -0.24977862026997766 0 15673 -0.24977862026997766 1
gene 1 2279 2068 -1.5815762357700505 0 15716 -1.5815762357700505 1
gene 1 1518 3572 1.1312768229894696 0 15739 1.1312768229894696 1
gene 1 672 4168 1 0 15766 1 1
gene 1 4168 3444 0.040297546908397951 0 15767 0.040297546908397951 1
gene 1 14 4172 3.6506279020805974 0 15781 3.6506279020805974 1
gene 1 4172 875 0.61601210297830966 0 15782 0.61601210297830966 1
gene 1 558 4192 1 0 15862 1 0
gene 1 4192 246 -0.86630514211314957 0 15863 -0.86630514211314957 1
gene 1 13 3914 -0.4728316179815828 0 15885 -0.4728316179815828 0
gene 1 11 4209 2.1959182528759902 0 15918 2.1959182528759902 1
gene 1 4209 2730 2.7674506111850268 0 15919 2.7674506111850268 1
gene 1 758 2004 1.4737962412060219 0 16068 1.4737962412060219 1
gene 1 2004 4079 0.34342277811068239 0 16096 0.34342277811068239 1
gene 1 6 4256 1 0 16116 1 1
gene 1 4256 14 -3.7582711956735109 0 16117 -3.7582711956735109 1
gene 1 2908 4259 -0.45343703313425043 0 16130 -0.45343703313425043 1
gene 1 4259 220 0.61754413275865094 0 16131 0.61754413275865094 1
gene 1 3512 3572 1.8760283639077229 0 16158 1.8760283639077229 1
gene 1 3693 4277 2.3498842567903382 0 16197 2.3498842567903382 1
gene 1 4277 14 7.5593816365857522 0 16198 7.5593816365857522 0
gene 1 1153 4280 2.4480869761892068 0 16209 2.4480869761892068 1
gene 1 4280 2914 0.054605015578961476 0 16210 0.054605015578961476 1
gene 1 1189 4287 3.2918888652193772 0 16229 3.2918888652193772 1
gene 1 4287 29 -0.35368828734089075 0 16230 -0.35368828734089075 1
gene 1 4280 4292 2.425109710462908 0 16243 2.425109710462908 1
gene 1 4292 2914 1.8359535140152803 0 16244 1.8359535140152803 1
gene 1 672 4300 1 0 16270 1 1
gene 1 4300 3914 1 0 16271 1 1
gene 1 22 4305 2.2442693639752775 0 16286 2.2442693639752775 1
gene 1 4305 1026 -0.26174952483817449 0 16287 -0.26174952483817449 1
gene 1 4 4349 1.9360283446200324 0 16465 1.9360283446200324 1
gene 1 4349 1107 -2.2203241822404429 0 16466 -2.2203241822404429 1
gene 1 2049 4399 1 0 16639 0 1
gene 1 4399 1026 3.418996543725485 0 16640 0 1
gene 1 3549 3578 -0.54725071999582031 0 16903 -0.54725071999582031 1
gene 1 2704 4079 0.72290836913646583 0 16932 0.72290836913646583 1
gene 1 2 2025 0.14367468382403006 0 16949 0.14367468382403006 1
gene 1 13 4500 1 0 16997 0 1
gene 1 4500 3914 -0.4728316179815828 0 16998 0 1
gene 1 7 861 -0.19232173226416191 0 17030 -0.19232173226416191 1
gene 1 803 1162 0.30826274319936647 0 17057 0.30826274319936647 1
gene 1 2420 4540 1 0 17124 0 1
gene 1 4540 1657 -0.51714513148979524 0 17125 0 1
gene 1 4280 3444 -0.17372082414744461 0 17170 -0.17372082414744461 1
gene 1 4292 4558 1 0 17185 0 1
gene 1 4558 2914 1.8359535140152803 0 17186 0 1
gene 1 22 4592 1 0 17340 0 1
gene 1 4592 862 -0.26717101236207924 0 17341 0 1
genomeend 0

