genomestart 0
trait 1 0.387802 0 0.674155 0.274286 0.680807 0.282713 0.764688 1 
node 1 1 1 1
node 2 1 1 1
node 3 1 1 1
node 4 1 1 1
node 5 1 1 1
node 6 1 1 1
node 7 1 1 1
node 8 1 1 1
node 9 1 1 1
node 10 1 1 1
node 11 1 1 1
node 12 1 1 3
node 13 1 0 2
node 14 1 0 2
node 22 1 0 0
node 32 1 0 0
node 276 1 0 0
node 313 1 0 0
node 347 1 0 0
node 366 1 0 0
node 382 1 0 0
node 394 1 0 0
node 560 1 0 0
node 680 1 0 0
node 690 1 0 0
node 788 1 0 0
node 813 1 0 0
node 837 1 0 0
node 842 1 0 0
node 975 1 0 0
node 984 1 0 0
node 989 1 0 0
node 1292 1 0 0
node 1336 1 0 0
node 1358 1 0 0
node 1426 1 0 0
node 1487 1 0 0
node 1507 1 0 0
node 1513 1 0 0
node 1665 1 0 0
node 1703 1 0 0
node 1729 1 0 0
node 1738 1 0 0
node 1746 1 0 0
node 1817 1 0 0
node 1871 1 0 0
node 1874 1 0 0
node 1919 1 0 0
node 2025 1 0 0
node 2040 1 0 0
node 2069 1 0 0
node 2099 1 0 0
node 2450 1 0 0
node 2500 1 0 0
node 2569 1 0 0
node 2597 1 0 0
node 2690 1 0 0
node 2789 1 0 0
node 2864 1 0 0
node 2867 1 0 0
node 2937 1 0 0
node 2988 1 0 0
node 2998 1 0 0
node 3024 1 0 0
node 3223 1 0 0
node 3235 1 0 0
node 3242 1 0 0
node 3245 1 0 0
node 3251 1 0 0
node 3298 1 0 0
node 3391 1 0 0
node 3427 1 0 0
node 3472 1 0 0
node 3537 1 0 0
node 3556 1 0 0
node 3662 1 0 0
node 3812 1 0 0
node 3860 1 0 0
node 3956 1 0 0
node 4261 1 0 0
node 4274 1 0 0
node 4298 1 0 0
node 4337 1 0 0
node 4523 1 0 0
node 4676 1 0 0
gene 1 1 13 -8 0 1 -8 0
gene 1 2 13 3.9276394781785271 0 2 3.9276394781785271 0
gene 1 3 13 6.4302450174606616 0 3 6.4302450174606616 1
gene 1 4 13 -1.9484795530028549 0 4 -1.9484795530028549 0
gene 1 5 13 2.9705938754815593 0 5 2.9705938754815593 1
gene 1 6 13 3.6095278450739698 0 6 3.6095278450739698 0
gene 1 7 13 5.4697183827088303 0 7 5.4697183827088303 0
gene 1 8 13 -7.4505247418538314 0 8 -7.4505247418538314 0
gene 1 9 13 -2.2821130054090113 0 9 -2.2821130054090113 0
gene 1 10 13 -5.4545590427608985 0 10 -5.4545590427608985 1
gene 1 11 13 8 0 11 8 1
gene 1 12 13 3.2038705328497428 0 12 3.2038705328497428 1
gene 1 1 14 8 0 13 8 0
gene 1 2 14 -1.4112693918863171 0 14 -1.4112693918863171 0
gene 1 3 14 1.3367684340013744 0 15 1.3367684340013744 1
gene 1 4 14 0.34709879751182116 0 16 0.34709879751182116 1
gene 1 5 14 1.8336727674275979 0 17 1.8336727674275979 0
gene 1 6 14 6.1547979364601408 0 18 6.1547979364601408 0
gene 1 7 14 -0.45068783464407913 0 19 -0.45068783464407913 1
gene 1 8 14 -1.7479623217126172 0 20 -1.7479623217126172 1
gene 1 9 14 7.8032082468126118 0 21 7.8032082468126118 0
gene 1 10 14 -1.508320270613567 0 22 -1.508320270613567 0
gene 1 11 14 -1.0330320564252473 0 23 -1.0330320564252473 1
gene 1 12 14 0.60782881761334318 0 24 0.60782881761334318 1
gene 1 9 22 8 0 42 8 0
gene 1 22 14 0.36566132421868991 0 43 0.36566132421868991 0
gene 1 10 32 1.036719739838373 0 70 1.036719739838373 0
gene 1 32 14 -0.18643045638987346 0 71 -0.18643045638987346 1
gene 1 13 32 -5.2755339352998565 0 92 -5.2755339352998565 1
gene 1 7 32 -7.385586799074936 0 178 -7.385586799074936 0
gene 1 1 22 -4.9312021178687928 0 392 -4.9312021178687928 0
gene 1 22 32 1.9826710925706061 0 459 1.9826710925706061 0
gene 1 12 22 5.1734737407531783 0 477 5.1734737407531783 1
gene 1 9 32 0.041892911140757105 0 601 0.041892911140757105 1
gene 1 6 32 2.618272723289333 0 618 2.618272723289333 1
gene 1 22 13 -1.6387821668939579 0 949 -1.6387821668939579 0
gene 1 9 276 -8 0 987 -8 0
gene 1 276 32 -2.6770091317254159 0 988 -2.6770091317254159 1
gene 1 4 276 -2.0014150504320463 0 1108 -2.0014150504320463 1
gene 1 6 313 -2.8137549264420549 0 1142 -2.8137549264420549 0
gene 1 313 32 4.5450727898429948 0 1143 4.5450727898429948 1
gene 1 2 276 1.8572499183273175 0 1198 1.8572499183273175 0
gene 1 13 347 1.7881787898313162 0 1254 1.7881787898313162 1
gene 1 347 32 -8 0 1255 -8 1
gene 1 313 366 -0.4734899746654504 0 1323 -0.4734899746654504 1
gene 1 366 32 1.0513496420585315 0 1324 1.0513496420585315 1
gene 1 7 276 -2.6289815910819372 0 1375 -2.6289815910819372 0
gene 1 7 382 4.9642909863040732 0 1388 4.9642909863040732 1
gene 1 382 13 -0.15707469906521698 0 1389 -0.15707469906521698 1
gene 1 22 394 0.7240750934575102 0 1440 0.7240750934575102 0
gene 1 394 32 1.1419725918522916 0 1441 1.1419725918522916 1
gene 1 382 22 -4.3532426019447126 0 1641 -4.3532426019447126 1
gene 1 276 22 0.083482066580784539 0 1682 0.083482066580784539 1
gene 1 22 560 -2.6587650134268985 0 2048 -2.6587650134268985 1
gene 1 560 394 1.7908594616617117 0 2049 1.7908594616617117 0
gene 1 347 313 -2.7415547859175384 0 2091 -2.7415547859175384 0
gene 1 12 313 -0.72413580828538937 0 2176 -0.72413580828538937 1
gene 1 8 347 2.0457516564269325 0 2404 2.0457516564269325 0
gene 1 6 22 4.4115291993012784 0 2431 4.4115291993012784 1
gene 1 11 347 0.4210831240907234 0 2464 0.4210831240907234 0
gene 1 347 680 5.1886317550151748 0 2477 5.1886317550151748 1
gene 1 680 313 -3.6544821262787934 0 2478 -3.6544821262787934 0
gene 1 6 690 -3.1481610100474953 0 2526 -3.1481610100474953 1
gene 1 690 14 -0.77965844387289107 0 2527 -0.77965844387289107 1
gene 1 22 680 -6.9972871020423639 0 2792 -6.9972871020423639 0
gene 1 560 13 -2.6307203958885372 0 2823 -2.6307203958885372 1
gene 1 8 382 -2.1528411267484029 0 2854 -2.1528411267484029 0
gene 1 22 788 0.75519577951878114 0 2902 0.75519577951878114 1
gene 1 788 394 -4.7199549207673197 0 2903 -4.7199549207673197 0
gene 1 560 813 -3.0557825338355187 0 2984 -3.0557825338355187 1
gene 1 813 13 4.0139279286267362 0 2985 4.0139279286267362 0
gene 1 4 837 -2.2609465056382803 0 3081 -2.2609465056382803 0
gene 1 837 276 -1.8640056533105698 0 3082 -1.8640056533105698 1
gene 1 837 842 2.1366755212362274 0 3101 2.1366755212362274 1
gene 1 842 276 0.51397133623900415 0 3102 0.51397133623900415 0
gene 1 560 14 -1.1209712155319149 0 3134 -1.1209712155319149 0
gene 1 7 560 -2.4905018290926244 0 3307 -2.4905018290926244 1
gene 1 6 276 2.1281489525354229 0 3355 2.1281489525354229 1
gene 1 788 32 2.2329492159806885 0 3481 2.2329492159806885 0
gene 1 842 13 1.0301818029164251 0 3497 1.0301818029164251 1
gene 1 6 975 0.68743624449122498 0 3625 0.68743624449122498 0
gene 1 975 13 4.1167389930653107 0 3626 4.1167389930653107 1
gene 1 22 984 -0.55034810213853991 0 3658 -0.55034810213853991 1
gene 1 984 560 2.0368169099496751 0 3659 2.0368169099496751 1
gene 1 11 989 5.4252598501859506 0 3674 5.4252598501859506 0
gene 1 989 14 1.9962097709660689 0 3675 1.9962097709660689 0
gene 1 382 837 -2.1627298793581917 0 3783 -2.1627298793581917 1
gene 1 12 975 1.346081129855514 0 3868 1.346081129855514 1
gene 1 837 690 -3.3522409021632003 0 4288 -3.3522409021632003 1
gene 1 989 366 1.5934533838152203 0 4396 1.5934533838152203 0
gene 1 1 1292 -2.1134807456813198 0 4781 -2.1134807456813198 0
gene 1 1292 13 -8 0 4782 -8 0
gene 1 1 837 -2.5781327763470507 0 4833 -2.5781327763470507 1
gene 1 8 1336 1.3868101391879888 0 4951 1.3868101391879888 0
gene 1 1336 14 -0.20911534878384042 0 4952 -0.20911534878384042 1
gene 1 1336 276 -3.4595525059195014 0 4977 -3.4595525059195014 1
gene 1 7 1358 -1.2762425473314907 0 5071 -1.2762425473314907 0
gene 1 1358 32 -6.5509278382470031 0 5072 -6.5509278382470031 1
gene 1 10 813 -1.5648497736849121 0 5111 -1.5648497736849121 1
gene 1 1336 1358 3.5700382094690752 0 5119 3.5700382094690752 0
gene 1 11 313 -2.5996224085798589 0 5251 -2.5996224085798589 1
gene 1 984 975 1.520004480108621 0 5263 1.520004480108621 0
gene 1 2 382 -0.4328975128163105 0 5298 -0.4328975128163105 0
gene 1 11 1426 -0.164552898222838 0 5315 -0.164552898222838 1
gene 1 1426 989 1.5999724793247752 0 5316 1.5999724793247752 1
gene 1 7 975 0.39995367685330707 0 5422 0.39995367685330707 0
gene 1 1292 1487 1 0 5537 1 1
gene 1 1487 13 -3.6155708490943392 0 5538 -3.6155708490943392 0
gene 1 2 394 -2.9197179947605907 0 5566 -2.9197179947605907 0
gene 1 1 1507 2.884410748390672 0 5607 2.884410748390672 1
gene 1 1507 1292 3.6971399005023482 0 5608 3.6971399005023482 1
gene 1 22 1513 0.90734387315220377 0 5623 0.90734387315220377 0
gene 1 1513 32 0.10302782802750715 0 5624 0.10302782802750715 0
gene 1 366 394 0.91865403853294159 0 5875 0.91865403853294159 0
gene 1 6 837 -0.46012493849737801 0 5958 -0.46012493849737801 1
gene 1 837 1513 0.78571554822182077 0 6045 0.78571554822182077 1
gene 1 366 1513 0.35070927662342277 0 6141 0.35070927662342277 1
gene 1 6 1665 2.259988009585062 0 6152 2.259988009585062 0
gene 1 1665 975 0.68743624449122498 0 6153 0 1
gene 1 13 1336 -0.88152952253889738 0 6168 -0.88152952253889738 1
gene 1 7 1426 2.5251564990380575 0 6284 2.5251564990380575 0
gene 1 12 680 0.15656257893730074 0 6303 0.15656257893730074 1
gene 1 8 1703 1 0 6316 0 0
gene 1 1703 1336 1.3868101391879888 0 6317 0 0
gene 1 8 1513 0.8542309668167638 0 6387 0.8542309668167638 0
gene 1 7 1729 -1.5861636494221925 0 6431 -1.5861636494221925 1
gene 1 1729 1426 0.96601121126022715 0 6432 0 0
gene 1 989 1738 1 0 6459 0 1
gene 1 1738 366 0.7670261474172706 0 6460 0 0
gene 1 1358 1746 1 0 6485 0 0
gene 1 1746 32 -6.5509278382470031 0 6486 0 1
gene 1 989 1817 1 0 6728 0 1
gene 1 1817 14 1.9962097709660689 0 6729 0 0
gene 1 382 788 0.88677327795269589 0 6821 0.88677327795269589 1
gene 1 2 1871 1 0 6931 0 0
gene 1 1871 276 1.8572499183273175 0 6932 0 0
gene 1 2 1874 1 0 6942 0 0
gene 1 1874 1871 1 0 6943 0 1
gene 1 7 1336 -0.3677661876975401 0 6997 -0.3677661876975401 1
gene 1 1871 690 0.93012671122799007 0 7031 0.93012671122799007 0
gene 1 1487 1919 1 0 7085 0 1
gene 1 1919 13 -3.6155708490943392 0 7086 0 0
gene 1 1513 1817 -0.37745764170654938 0 7165 -0.37745764170654938 1
gene 1 8 975 0.39879984380621458 0 7264 0.39879984380621458 1
gene 1 1871 1746 0.33181547947778156 0 7281 0.33181547947778156 0
gene 1 1919 1817 -0.60068796463342755 0 7458 -0.60068796463342755 1
gene 1 1817 1358 0.61344532278061159 0 7472 0.61344532278061159 0
gene 1 8 2025 1 0 7485 0 0
gene 1 2025 13 -7.4505247418538314 0 7486 0 1
gene 1 2 2040 1 0 7533 0 1
gene 1 2040 394 -2.9197179947605907 0 7534 0 0
gene 1 1703 975 0.1857107520036915 0 7548 0.1857107520036915 0
gene 1 1703 2069 1 0 7637 0 1
gene 1 2069 975 0.1857107520036915 0 7638 0 1
gene 1 2025 680 -0.032729160055857694 0 7735 -0.032729160055857694 0
gene 1 2040 1336 0.99072895198628719 0 7743 0.99072895198628719 1
gene 1 984 2099 1 0 7766 0 1
gene 1 2099 975 1.520004480108621 0 7767 0 1
gene 1 1665 680 -0.64366982441566412 0 8143 -0.64366982441566412 1
gene 1 1 1703 -0.077391210513837266 0 8184 -0.077391210513837266 1
gene 1 560 989 -0.19743481194481011 0 8211 -0.19743481194481011 0
gene 1 1871 975 -0.39925482841173876 0 8290 -0.39925482841173876 0
gene 1 560 1874 -0.060247683460008208 0 8356 -0.060247683460008208 1
gene 1 690 13 0.36022356355573215 0 8587 0.36022356355573215 1
gene 1 22 1703 -0.72538674237457423 0 8618 -0.72538674237457423 1
gene 1 382 984 -0.77627910430369862 0 8724 -0.77627910430369862 1
gene 1 5 1729 -0.52233252465833557 0 8761 -0.52233252465833557 1
gene 1 4 1746 0.25556156237403005 0 8852 0.25556156237403005 1
gene 1 2 1507 -0.13571591448770645 0 9113 -0.13571591448770645 0
gene 1 22 2450 1 0 9118 0 0
gene 1 2450 13 -1.6387821668939579 0 9119 0 0
gene 1 1507 975 0.33192637298811523 0 9201 0.33192637298811523 1
gene 1 1729 366 -0.75995822891591036 0 9267 -0.75995822891591036 0
gene 1 1358 2500 1 0 9287 0 1
gene 1 2500 1746 1 0 9288 0 1
gene 1 1 1874 0.033949879013909903 0 9314 0.033949879013909903 1
gene 1 8 2569 1 0 9576 0 0
gene 1 2569 2025 1 0 9577 0 0
gene 1 1919 690 -0.065592308559265136 0 9598 -0.065592308559265136 1
gene 1 4 2597 1 0 9677 0 0
gene 1 2597 837 -2.2609465056382803 0 9678 0 1
gene 1 1292 1874 -0.25561665522661836 0 9699 -0.25561665522661836 1
gene 1 11 788 0.59364842138888707 0 9837 0.59364842138888707 0
gene 1 1874 2025 -0.17927135162952884 0 9858 -0.17927135162952884 1
gene 1 1665 1871 -0.9248899737954559 0 9871 -0.9248899737954559 0
gene 1 22 1292 0.45710118648461123 0 9996 0.45710118648461123 1
gene 1 2450 2690 1 0 10062 0 1
gene 1 2690 13 -1.6387821668939579 0 10063 0 1
gene 1 1738 2069 0.036910417972556508 0 10181 0.036910417972556508 1
gene 1 2099 1871 0.27693724179497792 0 10191 0.27693724179497792 0
gene 1 11 690 0.79328082538828293 0 10371 0.79328082538828293 1
gene 1 8 1746 -0.63408510835565868 0 10448 -0.63408510835565868 1
gene 1 8 2789 1 0 10462 0 1
gene 1 2789 1703 1 0 10463 0 1
gene 1 2569 1507 0.81381399455192216 0 10536 0.81381399455192216 0
gene 1 837 366 -0.64276545617858205 0 10677 -0.64276545617858205 1
gene 1 788 2864 1 0 10711 0 1
gene 1 2864 394 -4.7199549207673197 0 10712 0 1
gene 1 1871 2867 1 0 10720 0 0
gene 1 2867 975 -0.39925482841173876 0 10721 0 0
gene 1 1874 32 0.74717976280822407 0 10879 0.74717976280822407 1
gene 1 1729 2069 -0.19404704319035962 0 10909 -0.19404704319035962 1
gene 1 1665 1507 -0.19895651387002156 0 10958 -0.19895651387002156 1
gene 1 1746 2937 1 0 10990 0 0
gene 1 2937 32 -6.5509278382470031 0 10991 0 1
gene 1 1817 2988 1 0 11157 0 1
gene 1 2988 14 1.9962097709660689 0 11158 0 1
gene 1 1 2998 1 0 11190 0 1
gene 1 2998 1874 0.033949879013909903 0 11191 0 1
gene 1 1665 3024 1 0 11269 0 0
gene 1 3024 1871 -0.9248899737954559 0 11270 0 1
gene 1 2099 1665 0.9722227388863558 0 11337 0.9722227388863558 1
gene 1 2450 1817 -0.23345079283856357 0 11456 -0.23345079283856357 1
gene 1 1292 2998 -0.36444289999289575 0 11687 -0.36444289999289575 1
gene 1 347 1871 0.37372988898946435 0 11783 0.37372988898946435 1
gene 1 1487 690 0.9173131323965793 0 11837 0.9173131323965793 1
gene 1 7 3223 1 0 12000 0 1
gene 1 3223 1358 -1.2762425473314907 0 12001 0 1
gene 1 2500 366 -0.58227138015547364 0 12028 -0.58227138015547364 1
gene 1 2099 3235 1 0 12052 0 1
gene 1 3235 1871 0.27693724179497792 0 12053 0 1
gene 1 1507 3235 0.84010290114213848 0 12064 0.84010290114213848 0
gene 1 2025 3242 1 0 12079 0 1
gene 1 3242 680 -0.032729160055857694 0 12080 0 1
gene 1 1871 3245 1 0 12089 0 1
gene 1 3245 1746 0.33181547947778156 0 12090 0 1
gene 1 8 3251 1 0 12109 0 1
gene 1 3251 382 -2.1528411267484029 0 12110 0 1
gene 1 1487 2937 0.23655218409213805 0 12295 0.23655218409213805 1
gene 1 13 3223 0.87923407362738348 0 12312 0.87923407362738348 1
gene 1 8 3298 1 0 12313 0 1
gene 1 3298 2569 1 0 12314 0 0
gene 1 366 2450 -0.91203173897789402 0 12346 -0.91203173897789402 1
gene 1 2864 1738 -0.68411567792488059 0 12587 -0.68411567792488059 1
gene 1 2 3391 1 0 12602 0 1
gene 1 3391 1507 -0.13571591448770645 0 12603 0 0
gene 1 1487 14 0.87727098347492094 0 12700 0.87727098347492094 1
gene 1 4 3427 1 0 12764 0 1
gene 1 3427 2597 1 0 12765 0 1
gene 1 2690 2500 -0.25266685441726205 0 12829 -0.25266685441726205 1
gene 1 1919 3472 1 0 12931 0 1
gene 1 3472 13 -3.6155708490943392 0 12932 0 1
gene 1 1426 2867 -0.042741328497762479 0 12960 -0.042741328497762479 1
gene 1 2069 989 -0.295801901861933 0 13096 -0.295801901861933 1
gene 1 22 3537 1 0 13168 0 1
gene 1 3537 2450 1 0 13169 0 1
gene 1 382 1507 0.52559280373416506 0 13187 0.52559280373416506 1
gene 1 1358 366 0.086500802583294359 0 13196 0.086500802583294359 1
gene 1 2867 3556 1 0 13243 0 1
gene 1 3556 975 -0.39925482841173876 0 13244 0 1
gene 1 1292 3391 0.19142385860505692 0 13296 0.19142385860505692 1
gene 1 3024 2867 0.50258096563749988 0 13357 0.50258096563749988 1
gene 1 1738 690 0.74044994392453223 0 13374 0.74044994392453223 1
gene 1 842 1746 0.8121224282365862 0 13439 0.8121224282365862 1
gene 1 3298 3662 1 0 13623 0 1
gene 1 3662 2569 1 0 13624 0 1
gene 1 3251 788 0.95075016699300618 0 13707 0.95075016699300618 1
gene 1 22 989 -0.68157302154301336 0 13854 -0.68157302154301336 1
gene 1 14 366 0.68386452444077683 0 13933 0.68386452444077683 1
gene 1 1871 3812 1 0 14182 0 1
gene 1 3812 2867 1 0 14183 0 1
gene 1 2069 690 0.71144540221963326 0 14208 0.71144540221963326 1
gene 1 1817 2500 0.05929951791618928 0 14257 0.05929951791618928 1
gene 1 3298 1746 -0.0084316562900467115 0 14326 -0.0084316562900467115 1
gene 1 8 3860 1 0 14342 0 1
gene 1 3860 347 2.0457516564269325 0 14343 0 1
gene 1 837 3245 -0.15229942610128755 0 14635 -0.15229942610128755 1
gene 1 1 1871 0.9397448710816656 0 14652 0.9397448710816656 1
gene 1 560 3956 1 0 14667 0 1
gene 1 3956 14 -1.1209712155319149 0 14668 0 0
gene 1 3472 1871 0.16538928736252212 0 14856 0.16538928736252212 1
gene 1 6 3427 0.3036850971652591 0 14872 0.3036850971652591 0
gene 1 1358 3024 -0.4243786597737943 0 15109 -0.4243786597737943 1
gene 1 837 3298 -0.20925181974156379 0 15164 -0.20925181974156379 1
gene 1 382 3391 0.29863384566206197 0 15608 0.29863384566206197 1
gene 1 560 2069 0.42089428772260168 0 15679 0.42089428772260168 1
gene 1 1507 32 0.12887588661577362 0 15740 0.12887588661577362 1
gene 1 2569 4261 1 0 15809 0 1
gene 1 4261 2025 1 0 15810 0 1
gene 1 6 4274 1 0 15845 0 1
gene 1 4274 1665 2.259988009585062 0 15846 0 1
gene 1 1507 4298 1 0 15932 0 1
gene 1 4298 3235 0.84010290114213848 0 15933 0 1
gene 1 3537 3242 0.7761390874051205 0 15988 0.7761390874051205 1
gene 1 8 4337 1 0 16069 0 1
gene 1 4337 1513 0.8542309668167638 0 16070 0 1
gene 1 4274 3556 0.02125826246163727 0 16406 0.02125826246163727 1
gene 1 3391 4523 1 0 16718 0 1
gene 1 4523 1507 -0.13571591448770645 0 16719 0 1
gene 1 2500 2789 -0.08950076396088151 0 17000 -0.08950076396088151 1
gene 1 2937 394 0.70613270099560388 0 17251 0.70613270099560388 1
gene 1 1871 4676 1 0 17286 0 1
gene 1 4676 690 0.93012671122799007 0 17287 0 1
genomeend 0
