genomestart 42
trait 1 0.93343777992353105 0.53014329799362181 0.73935916525121392 0.85454032506544908 0.94844794253508058 0.2093912884014299 0.55119386536623871 0.37756797941068165 
node 1 1 1 1
node 2 1 1 1
node 3 1 1 1
node 4 1 1 1
node 5 1 1 1
node 6 1 1 1
node 7 1 1 1
node 8 1 1 1
node 9 1 1 1
node 10 1 1 1
node 11 1 1 1
node 12 1 1 3
node 13 1 0 2
node 14 1 0 2
node 19 1 0 0
node 81 1 0 0
node 427 1 0 0
node 453 1 0 0
node 628 1 0 0
node 632 1 0 0
node 653 1 0 0
node 868 1 0 0
node 1189 1 0 0
node 1276 1 0 0
node 1411 1 0 0
node 1634 1 0 0
node 1648 1 0 0
node 1844 1 0 0
node 1861 1 0 0
node 1965 1 0 0
node 2019 1 0 0
node 2129 1 0 0
node 2160 1 0 0
node 2205 1 0 0
node 2334 1 0 0
node 2352 1 0 0
node 2442 1 0 0
node 2447 1 0 0
node 2452 1 0 0
node 2455 1 0 0
node 2459 1 0 0
node 2491 1 0 0
node 2555 1 0 0
node 2642 1 0 0
node 2667 1 0 0
node 2698 1 0 0
node 2706 1 0 0
node 2716 1 0 0
node 2724 1 0 0
node 2814 1 0 0
node 2822 1 0 0
node 2839 1 0 0
node 2870 1 0 0
node 2890 1 0 0
gene 1 1 13 0.52643700000000004 0 1 0.52643700000000004 1
gene 1 2 13 0.65807700000000002 0 2 0.65807700000000002 1
gene 1 3 13 5.9474200000000002 0 3 5.9474200000000002 1
gene 1 4 13 -2.7750599999999999 0 4 -2.7750599999999999 1
gene 1 5 13 -5.1041100000000004 0 5 -5.1041100000000004 1
gene 1 6 13 0.0048217299999999998 0 6 0.0048217299999999998 1
gene 1 7 13 -1.9413800000000001 0 7 -1.9413800000000001 1
gene 1 8 13 1.2523899999999999 0 8 1.2523899999999999 1
gene 1 9 13 0.150786 0 9 0.150786 1
gene 1 10 13 -5.76349 0 10 -5.76349 1
gene 1 11 13 8 0 11 8 1
gene 1 12 13 -3.3938600000000001 0 12 -3.3938600000000001 1
gene 1 1 14 1.0472699999999999 0 13 1.0472699999999999 1
gene 1 2 14 0.55088800000000004 0 14 0.55088800000000004 1
gene 1 3 14 0.34802899999999998 0 15 0.34802899999999998 1
gene 1 4 14 1.5049600000000001 0 16 1.5049600000000001 1
gene 1 5 14 0.32080900000000001 0 17 0.32080900000000001 1
gene 1 6 14 -0.73159600000000002 0 18 -0.73159600000000002 0
gene 1 7 14 4.9298799999999998 0 19 4.9298799999999998 0
gene 1 8 14 -3.6196000000000002 0 20 -3.6196000000000002 1
gene 1 9 14 -2.7024653592217969 0 21 -2.7024653592217969 0
gene 1 10 14 1.5083800000000001 0 22 1.5083800000000001 0
gene 1 11 14 -4.1591100000000001 0 23 -4.1591100000000001 0
gene 1 12 14 2.28864 0 24 2.28864 1
gene 1 11 19 -2.0550489055829861 0 33 -2.0550489055829861 1
gene 1 19 14 7.31304 0 34 7.31304 1
gene 1 3 19 -0.12461114666309239 0 71 -0.12461114666309239 1
gene 1 4 19 2.0898840374272241 0 124 2.0898840374272241 1
gene 1 13 19 4.0425700000000004 0 162 4.0425700000000004 0
gene 1 7 19 5.4953799999999999 0 175 5.4953799999999999 1
gene 1 9 81 -1.70645 0 247 -1.70645 1
gene 1 81 13 6.3230905370554193 0 248 6.3230905370554193 1
gene 1 3 81 1.70153 0 486 1.70153 1
gene 1 4 81 -6.4656399999999996 0 563 -6.4656399999999996 1
gene 1 6 19 -1.9019363923443779 0 825 -1.9019363923443779 0
gene 1 7 81 -3.0453700000000001 0 1015 -3.0453700000000001 1
gene 1 8 81 -5.8260340247138647 0 1048 -5.8260340247138647 1
gene 1 5 81 6.7009903531956159 0 1307 6.7009903531956159 1
gene 1 1 81 -2.0579900000000002 0 1403 -2.0579900000000002 1
gene 1 5 427 7.99085 0 1484 7.99085 1
gene 1 427 81 -8 0 1485 -8 0
gene 1 9 19 -4.1336557541291024 0 1507 -4.1336557541291024 1
gene 1 11 427 0.29179699999999997 0 1527 0.29179699999999997 0
gene 1 5 19 -7.2231699999999996 0 1551 -7.2231699999999996 1
gene 1 6 453 -4.6017299999999999 0 1585 -4.6017299999999999 1
gene 1 453 14 7.1601400000000002 0 1586 7.1601400000000002 1
gene 1 2 19 -0.931589 0 2178 -0.931589 1
gene 1 4 628 0.210316 0 2253 0.210316 1
gene 1 628 14 -0.84833999999999998 0 2254 -0.84833999999999998 0
gene 1 4 632 1.20577 0 2266 1.20577 0
gene 1 632 19 3.2009300000000001 0 2267 3.2009300000000001 0
gene 1 12 81 0.3683881919210088 0 2290 0.3683881919210088 1
gene 1 628 13 1.5689 0 2307 1.5689 0
gene 1 11 653 3.3186599999999999 0 2346 3.3186599999999999 1
gene 1 653 427 1.5533598022956911 0 2347 1.5533598022956911 0
gene 1 8 427 1.6578200000000001 0 2362 1.6578200000000001 1
gene 1 2 427 -1.7821800000000001 0 2402 -1.7821800000000001 1
gene 1 5 653 1.7847500000000001 0 2494 1.7847500000000001 0
gene 1 628 453 0.26777604951759615 0 2568 0.26777604951759615 1
gene 1 8 628 -2.1914181007135323 0 2586 -2.1914181007135323 1
gene 1 7 453 0.032591700000000001 0 3068 0.032591700000000001 1
gene 1 9 628 0.117199 0 3090 0.117199 1
gene 1 453 19 -1.1673 0 3102 -1.1673 1
gene 1 453 868 0.109708 0 3153 0.109708 1
gene 1 868 14 6.7988 0 3154 6.7988 0
gene 1 4 427 -0.54509700000000005 0 3209 -0.54509700000000005 0
gene 1 3 868 -1.6914536931018582 0 4135 -1.6914536931018582 0
gene 1 632 628 0.33446399999999998 0 4150 0.33446399999999998 1
gene 1 7 1189 1 0 4283 0 1
gene 1 1189 19 5.6733099999999999 0 4284 0 1
gene 1 1 868 0.85259200000000002 0 4351 0.85259200000000002 0
gene 1 10 868 0.0489285 0 4370 0.0489285 1
gene 1 1189 13 0.052773199999999999 0 4522 0.052773199999999999 1
gene 1 628 1276 1.00153 0 4607 0.064027100000000003 1
gene 1 1276 13 1.5689 0 4608 0 1
gene 1 427 13 0.1655445794095671 0 4880 0.1655445794095671 1
gene 1 6 632 0.83009599999999995 0 5058 0.83009599999999995 1
gene 1 868 1411 1.1201099999999999 0 5106 0.16112699999999999 1
gene 1 1411 14 6.7988 0 5107 0 1
gene 1 427 628 0.71596292287271357 0 5125 0.71596292287271357 1
gene 1 10 1411 -0.044733099999999998 0 5329 -0.044733099999999998 0
gene 1 427 632 0.84229259181845029 0 5360 0.84229259181845029 1
gene 1 1 19 -0.99570199999999998 0 5557 -0.99570199999999998 1
gene 1 1189 628 0.085281599999999999 0 5616 0.085281599999999999 0
gene 1 2 1634 1.1629903562602077 0 5941 0.53799035626020764 0
gene 1 1634 427 -1.7821800000000001 0 5942 0 1
gene 1 1189 1648 1 0 5999 0 1
gene 1 1648 628 0.085281599999999999 0 6000 0 1
gene 1 10 1648 0.954932 0 6090 0.954932 1
gene 1 1411 1634 0.25026607385433236 0 6269 0.25026607385433236 1
gene 1 10 1844 1 0 6680 0 1
gene 1 1844 1648 0.99907800000000002 0 6681 0 0
gene 1 7 868 0.53160799999999997 0 6709 0.53160799999999997 1
gene 1 6 1861 1 0 6755 0 1
gene 1 1861 632 0.83009599999999995 0 6756 0 1
gene 1 2 1965 1 0 7126 0 1
gene 1 1965 19 -0.931589 0 7127 0 0
gene 1 1844 2019 1 0 7312 0 0
gene 1 2019 1648 0.99907800000000002 0 7313 0 0
gene 1 1 1411 0.76953499999999997 0 7376 0.76953499999999997 1
gene 1 13 1648 0.33749099999999999 0 7409 0.33749099999999999 1
gene 1 10 653 -0.45907286048345591 0 7530 -0.45907286048345591 1
gene 1 868 2019 -0.77119499999999996 0 7550 -0.77119499999999996 1
gene 1 10 2129 1 0 7741 0 0
gene 1 2129 653 -0.37352200000000002 0 7742 0 0
gene 1 427 2160 1 0 7858 0 1
gene 1 2160 81 -8 0 7859 -1.5 1
gene 1 1844 2205 1 0 8001 0 1
gene 1 2205 2019 1 0 8002 0 1
gene 1 6 2205 -0.98892000000000002 0 8116 -0.98892000000000002 1
gene 1 81 2205 0.93687100000000001 0 8501 0.93687100000000001 1
gene 1 653 2334 1 0 8508 0 1
gene 1 2334 427 1.6478900000000001 0 8509 0 0
gene 1 10 2352 1 0 8570 0 1
gene 1 2352 14 1.5083800000000001 0 8571 0 1
gene 1 1844 1965 -0.94932399999999995 0 9049 -0.94932399999999995 1
gene 1 4 653 0.57702399999999998 0 9066 0.57702399999999998 1
gene 1 1411 2442 1 0 9349 0 1
gene 1 2442 1634 0.25026607385433236 0 9350 0 1
gene 1 7 2447 1 0 9366 0 1
gene 1 2447 14 4.9298799999999998 0 9367 0 1
gene 1 1634 2452 1 0 9381 0 1
gene 1 2452 427 -1.7821800000000001 0 9382 0 1
gene 1 2442 2455 1 0 9392 0 1
gene 1 2455 1634 0.25026607385433236 0 9393 0 1
gene 1 2 2459 1 0 9410 0 0
gene 1 2459 1634 1.1629903562602077 0 9411 0 0
gene 1 6 2491 1 0 9541 0 1
gene 1 2491 14 -0.73159600000000002 0 9542 0 1
gene 1 10 1861 -0.5276040232403223 0 9557 -0.5276040232403223 1
gene 1 653 2555 1 0 9752 0 1
gene 1 2555 427 1.5533598022956911 0 9753 0 1
gene 1 8 2019 0.39901231713547014 0 9875 0.39901231713547014 1
gene 1 2459 2642 1 0 10048 0 1
gene 1 2642 1634 1.1629903562602077 0 10049 0 1
gene 1 6 2667 1 0 10133 0 1
gene 1 2667 19 -1.9019363923443779 0 10134 0 1
gene 1 2459 2698 1 0 10239 0 1
gene 1 2698 2642 1 0 10240 0 1
gene 1 1965 2452 0.62782994966387284 0 10258 0.62782994966387284 0
gene 1 2 2706 1 0 10272 0 1
gene 1 2706 2459 1 0 10273 0 1
gene 1 1861 2205 -0.016850611202814902 0 10281 -0.016850611202814902 1
gene 1 653 2442 0.93636408538388283 0 10297 0.93636408538388283 1
gene 1 4 2716 1 0 10313 0 1
gene 1 2716 427 -0.54509700000000005 0 10314 0 1
gene 1 2334 2724 1 0 10337 0 1
gene 1 2724 427 1.6478900000000001 0 10338 0 1
gene 1 2352 2555 -0.69871473810575657 0 10369 -0.69871473810575657 1
gene 1 632 1844 0.36890069598746517 0 10388 0.36890069598746517 1
gene 1 2491 1861 -0.56571197815505414 0 10574 -0.56571197815505414 1
gene 1 1844 2814 1 0 10656 0 1
gene 1 2814 2019 1 0 10657 0 1
gene 1 1965 2822 1 0 10683 0 1
gene 1 2822 2452 0.62782994966387284 0 10684 0 1
gene 1 2667 2642 0.2196240295747407 0 10739 0.2196240295747407 1
gene 1 2334 632 -0.0057800784733984985 0 10758 -0.0057800784733984985 1
gene 1 653 2839 1 0 10772 0 1
gene 1 2839 2334 1 0 10773 0 0
gene 1 2642 2839 -0.1652099011303903 0 10817 -0.1652099011303903 1
gene 1 3 1844 0.55532608393362071 0 10836 0.55532608393362071 1
gene 1 2839 2870 1 0 10874 0 1
gene 1 2870 2334 1 0 10875 0 1
gene 1 2160 2814 0.39730293182530579 0 10914 0.39730293182530579 1
gene 1 2459 1861 -0.38682049670574281 0 10938 -0.38682049670574281 1
gene 1 2839 2890 1 0 10961 0 1
gene 1 2890 2870 1 0 10962 0 1
gene 1 2019 2459 0.28111215042002136 0 10987 0.28111215042002136 1
gene 1 81 1861 0.59258429687124881 0 11222 0.59258429687124881 1
genomeend 42
