genomestart 0
trait 1 0.326615 0.517076 0.854193 0.410692 0.570997 0.732526 0.975013 0.0614357 
node 1 1 1 1
node 2 1 1 1
node 3 1 1 1
node 4 1 1 1
node 5 1 1 1
node 6 1 1 1
node 7 1 1 1
node 8 1 1 1
node 9 1 1 3
node 10 1 0 2
node 11 1 0 2
node 12 1 0 2
node 13 1 0 2
node 14 1 0 2
node 17 1 0 0
node 36 1 0 0
node 40 1 0 0
node 53 1 0 0
node 184 1 0 0
node 284 1 0 0
node 387 1 0 0
node 392 1 0 0
node 482 1 0 0
node 521 1 0 0
node 754 1 0 0
node 788 1 0 0
node 799 1 0 0
node 842 1 0 0
node 1014 1 0 0
node 1165 1 0 0
node 1243 1 0 0
node 1282 1 0 0
node 1292 1 0 0
node 1350 1 0 0
node 1455 1 0 0
node 1488 1 0 0
node 1541 1 0 0
node 1544 1 0 0
node 1562 1 0 0
node 1598 1 0 0
node 1664 1 0 0
node 1753 1 0 0
node 1797 1 0 0
node 1802 1 0 0
node 1867 1 0 0
node 1923 1 0 0
node 2035 1 0 0
node 2076 1 0 0
node 2083 1 0 0
node 2092 1 0 0
node 2181 1 0 0
node 2223 1 0 0
node 2311 1 0 0
node 2454 1 0 0
node 2476 1 0 0
node 2539 1 0 0
node 2542 1 0 0
node 2830 1 0 0
node 2915 1 0 0
node 2950 1 0 0
node 2958 1 0 0
node 2985 1 0 0
node 2989 1 0 0
node 3024 1 0 0
node 3099 1 0 0
node 3103 1 0 0
node 3180 1 0 0
node 3188 1 0 0
node 3204 1 0 0
node 3325 1 0 0
node 3373 1 0 0
node 3427 1 0 0
node 3437 1 0 0
node 3498 1 0 0
node 3550 1 0 0
node 3590 1 0 0
node 3601 1 0 0
node 3614 1 0 0
node 3709 1 0 0
node 3714 1 0 0
node 3839 1 0 0
node 3863 1 0 0
node 3896 1 0 0
node 3936 1 0 0
node 3996 1 0 0
node 3999 1 0 0
node 4033 1 0 0
node 4068 1 0 0
node 4207 1 0 0
node 4249 1 0 0
node 4260 1 0 0
node 4300 1 0 0
node 4307 1 0 0
node 4325 1 0 0
node 4338 1 0 0
node 4395 1 0 0
node 4406 1 0 0
node 4791 1 0 0
node 4815 1 0 0
node 4875 1 0 0
node 4929 1 0 0
node 4951 1 0 0
node 4956 1 0 0
node 5054 1 0 0
node 5071 1 0 0
node 5254 1 0 0
node 5378 1 0 0
node 5446 1 0 0
node 5535 1 0 0
node 5547 1 0 0
node 5600 1 0 0
node 5616 1 0 0
node 5684 1 0 0
node 5697 1 0 0
node 5797 1 0 0
node 5806 1 0 0
node 5909 1 0 0
node 5914 1 0 0
node 5938 1 0 0
node 5966 1 0 0
node 6050 1 0 0
node 6140 1 0 0
node 6194 1 0 0
node 6277 1 0 0
node 6292 1 0 0
node 6317 1 0 0
node 6372 1 0 0
node 6422 1 0 0
node 6461 1 0 0
node 6496 1 0 0
gene 1 1 10 1.5971628105007287 0 1 1.5971628105007287 1
gene 1 2 10 -5.5403754921934443 0 2 -5.5403754921934443 1
gene 1 3 10 -1.5601808083873154 0 3 -1.5601808083873154 0
gene 1 4 10 8 0 4 8 1
gene 1 5 10 3.2008915333001422 0 5 3.2008915333001422 1
gene 1 6 10 5.2444537800012405 0 6 5.2444537800012405 1
gene 1 7 10 -8 0 7 -8 1
gene 1 8 10 -7.6641125175905698 0 8 -7.6641125175905698 1
gene 1 9 10 -2.4140562816122806 0 9 -2.4140562816122806 1
gene 1 1 11 1.5710163263003414 0 10 1.5710163263003414 1
gene 1 2 11 5.1819272154923484 0 11 5.1819272154923484 1
gene 1 3 11 -7.3065914006468793 0 12 -7.3065914006468793 1
gene 1 4 11 -0.26753553956166631 0 13 -0.26753553956166631 1
gene 1 5 11 -1.4615492352105439 0 14 -1.4615492352105439 1
gene 1 6 11 4.0347806512540121 0 15 4.0347806512540121 1
gene 1 7 11 2.6886392541235029 0 16 2.6886392541235029 1
gene 1 8 11 7.2957171685740896 0 17 7.2957171685740896 1
gene 1 9 11 7.3002567670309251 0 18 7.3002567670309251 1
gene 1 1 12 0.074194064677783 0 19 0.074194064677783 1
gene 1 2 12 4.8400040396209825 0 20 4.8400040396209825 1
gene 1 3 12 8 0 21 8 1
gene 1 4 12 -3.1465413072363191 0 22 -3.1465413072363191 1
gene 1 5 12 -2.1709308083499455 0 23 -2.1709308083499455 1
gene 1 6 12 -3.1297626019128444 0 24 -3.1297626019128444 1
gene 1 7 12 -3.2345827650672678 0 25 -3.2345827650672678 1
gene 1 8 12 -2.2547145571814449 0 26 -2.2547145571814449 1
gene 1 9 12 1.1947705790608985 0 27 1.1947705790608985 1
gene 1 1 13 1.8625573479861748 0 28 1.8625573479861748 1
gene 1 2 13 4.5550912965345614 0 29 4.5550912965345614 1
gene 1 3 13 -4.9621335633970478 0 30 -4.9621335633970478 1
gene 1 4 13 -2.2601759541637954 0 31 -2.2601759541637954 1
gene 1 5 13 1.7240497516580162 0 32 1.7240497516580162 1
gene 1 6 13 -7.0539914288809484 0 33 -7.0539914288809484 1
gene 1 7 13 2.2489005772082575 0 34 2.2489005772082575 1
gene 1 8 13 -1.191476989114413 0 35 -1.191476989114413 1
gene 1 9 13 1.5926335219259533 0 36 1.5926335219259533 1
gene 1 1 14 -0.14961669070162656 0 37 -0.14961669070162656 0
gene 1 2 14 5.1345446993757715 0 38 5.1345446993757715 1
gene 1 3 14 -2.5264374386118442 0 39 -2.5264374386118442 0
gene 1 4 14 1.1533501464190659 0 40 1.1533501464190659 1
gene 1 5 14 1.1418460694387473 0 41 1.1418460694387473 1
gene 1 6 14 -0.54311069787624811 0 42 -0.54311069787624811 1
gene 1 7 14 8 0 43 8 1
gene 1 8 14 -6.9571032611686281 0 44 -6.9571032611686281 1
gene 1 9 14 -2.5864914851433092 0 45 -2.5864914851433092 1
gene 1 7 17 4.4650882544706523 0 52 4.4650882544706523 1
gene 1 17 11 0.90518644158969952 0 53 0.90518644158969952 1
gene 1 14 12 4.3820333782034142 0 108 4.3820333782034142 1
gene 1 12 11 0.87360208063554057 0 117 0.87360208063554057 1
gene 1 5 36 -3.8198906221519651 0 133 -3.8198906221519651 1
gene 1 36 14 1.9151640866488047 0 134 1.9151640866488047 1
gene 1 1 40 -8 0 147 -8 1
gene 1 40 10 -3.04034361589716 0 148 -3.04034361589716 1
gene 1 36 10 2.155415000734112 0 168 2.155415000734112 1
gene 1 13 12 5.0289869282995294 0 181 5.0289869282995294 1
gene 1 4 53 -0.97299701505014535 0 199 -0.97299701505014535 1
gene 1 53 12 -7.1871334757363119 0 200 -7.1871334757363119 1
gene 1 7 53 -8 0 282 -8 1
gene 1 13 14 2.2197120615605783 0 297 2.2197120615605783 1
gene 1 53 40 1.0919443648736664 0 604 1.0919443648736664 1
gene 1 8 36 -2.0939237666288033 0 669 -2.0939237666288033 1
gene 1 1 184 -2.7850492296903626 0 701 -2.7850492296903626 1
gene 1 184 10 7.9347128140901733 0 702 7.9347128140901733 1
gene 1 9 184 -7.5036301049886411 0 719 -7.5036301049886411 1
gene 1 8 184 1.876167219796296 0 767 1.876167219796296 1
gene 1 13 184 -6.0867553775602765 0 1052 -6.0867553775602765 1
gene 1 7 284 4.0412792917533213 0 1079 4.0412792917533213 1
gene 1 284 14 -3.3531863461030582 0 1080 -3.3531863461030582 1
gene 1 40 17 2.6989780629980276 0 1471 2.6989780629980276 1
gene 1 8 387 0.19555999110246081 0 1483 0.19555999110246081 1
gene 1 387 11 1.014197708440105 0 1484 1.014197708440105 1
gene 1 1 392 4.2660708989440783 0 1495 4.2660708989440783 1
gene 1 392 14 0.18942284396415254 0 1496 0.18942284396415254 1
gene 1 5 387 0.093207597077455295 0 1557 0.093207597077455295 1
gene 1 5 482 -1.9946089886103802 0 1819 -1.9946089886103802 1
gene 1 482 11 6.8702950645565499 0 1820 6.8702950645565499 1
gene 1 284 521 -2.6143364994387777 0 1963 -2.6143364994387777 0
gene 1 521 14 -3.021021521096884 0 1964 -3.021021521096884 1
gene 1 521 184 -6.1514331301913749 0 2101 -6.1514331301913749 1
gene 1 8 521 4.4721464032672316 0 2157 4.4721464032672316 1
gene 1 17 521 0.046317511678821255 0 2226 0.046317511678821255 1
gene 1 36 284 0.39593368046145549 0 2404 0.39593368046145549 1
gene 1 13 521 4.2336686135426485 0 2678 4.2336686135426485 1
gene 1 12 521 -3.3545498242390099 0 2755 -3.3545498242390099 1
gene 1 6 754 -0.43331233614976983 0 2829 -0.43331233614976983 1
gene 1 754 11 0.31860177046321347 0 2830 0.31860177046321347 1
gene 1 53 11 -1.9081443685726931 0 2866 -1.9081443685726931 1
gene 1 10 392 -6.4905468700875275 0 2894 -6.4905468700875275 1
gene 1 1 788 6.2714291486290419 0 2935 6.2714291486290419 1
gene 1 788 392 5.1793586237259941 0 2936 5.1793586237259941 0
gene 1 1 799 -4.7136470987612364 0 2962 -4.7136470987612364 1
gene 1 799 11 -5.5415118557565197 0 2963 -5.5415118557565197 1
gene 1 4 36 4.8532701576958726 0 2991 4.8532701576958726 1
gene 1 6 392 2.1611452441248797 0 3003 2.1611452441248797 1
gene 1 7 842 0.90900285785738622 0 3128 0.90900285785738622 1
gene 1 842 53 -5.4718702462370832 0 3129 -5.4718702462370832 1
gene 1 53 184 -3.0186541304195549 0 3341 -3.0186541304195549 1
gene 1 13 10 -2.1559137021335371 0 3649 -2.1559137021335371 1
gene 1 8 392 -3.1698127077868268 0 3683 -3.1698127077868268 1
gene 1 184 1014 3.400267089810348 0 3724 3.400267089810348 1
gene 1 1014 10 -8 0 3725 -8 1
gene 1 13 17 -2.7042211677898749 0 3851 -2.7042211677898749 1
gene 1 799 1014 0.95113387141080352 0 3905 0.95113387141080352 1
gene 1 799 40 -0.089384496858987972 0 4056 -0.089384496858987972 1
gene 1 184 1165 -1.4084987350953735 0 4295 -1.4084987350953735 1
gene 1 1165 1014 -1.2906014020278123 0 4296 -1.2906014020278123 1
gene 1 7 1243 4.0286115582001445 0 4555 4.0286115582001445 1
gene 1 1243 284 1.0540729036806489 0 4556 1.0540729036806489 0
gene 1 482 754 -3.2794228203964524 0 4687 -3.2794228203964524 1
gene 1 4 1282 4.7710745150554343 0 4728 4.7710745150554343 1
gene 1 1282 53 0.031907831706064538 0 4729 0.031907831706064538 1
gene 1 2 788 -1.6482997333855833 0 4748 -1.6482997333855833 1
gene 1 6 1292 -3.3042047464774007 0 4766 -3.3042047464774007 1
gene 1 1292 12 -3.0014815241570956 0 4767 -3.0014815241570956 1
gene 1 1292 521 0.46451332459785633 0 4820 0.46451332459785633 1
gene 1 8 1350 -7.0390531782708354 0 4988 -7.0390531782708354 1
gene 1 1350 12 5.6430651729894183 0 4989 5.6430651729894183 0
gene 1 3 1282 -8 0 5005 -8 1
gene 1 1243 392 6.9606730034391742 0 5146 6.9606730034391742 1
gene 1 788 184 3.6104238717399646 0 5186 3.6104238717399646 1
gene 1 1282 13 -2.3337108188000091 0 5255 -2.3337108188000091 1
gene 1 392 1455 0.086489949392382859 0 5414 0.086489949392382859 1
gene 1 1455 14 -1.343656568668623 0 5415 -1.343656568668623 1
gene 1 36 17 -5.7208764836755011 0 5512 -5.7208764836755011 1
gene 1 1014 1488 -5.3851650271961296 0 5533 -5.3851650271961296 1
gene 1 1488 10 -1.5156720638348127 0 5534 -1.5156720638348127 1
gene 1 1455 754 -8 0 5565 -8 1
gene 1 482 10 2.7812526084046123 0 5613 2.7812526084046123 1
gene 1 1282 36 -4.3371059961091287 0 5633 -4.3371059961091287 0
gene 1 36 842 -5.3258503977329701 0 5653 -5.3258503977329701 1
gene 1 5 284 -6.2356244917193537 0 5746 -6.2356244917193537 1
gene 1 7 1292 3.043771423047303 0 5757 3.043771423047303 1
gene 1 799 1541 -0.18151359939086875 0 5774 -0.18151359939086875 1
gene 1 1541 1014 2.972400475280546 0 5775 2.972400475280546 1
gene 1 1 1544 0.51258422727118524 0 5782 0.51258422727118524 1
gene 1 1544 10 -0.58263540183316698 0 5783 -0.58263540183316698 1
gene 1 1 1165 3.0031759429155738 0 5798 3.0031759429155738 1
gene 1 1 1562 7.699464697425471 0 5857 7.699464697425471 1
gene 1 1562 184 5.6285197207400435 0 5858 5.6285197207400435 1
gene 1 13 1598 5.5743458371489982 0 5999 5.5743458371489982 1
gene 1 1598 184 5.0644176747949876 0 6000 5.0644176747949876 0
gene 1 1541 521 -7.0155766274154079 0 6053 -7.0155766274154079 1
gene 1 53 1165 -4.9329335271068544 0 6160 -4.9329335271068544 1
gene 1 1 1664 2.8880867511909858 0 6242 2.8880867511909858 1
gene 1 1664 1562 4.832802473870828 0 6243 4.832802473870828 1
gene 1 1455 1562 -5.8404825532708191 0 6262 -5.8404825532708191 0
gene 1 7 1544 1.4989115446335228 0 6507 1.4989115446335228 0
gene 1 1598 521 1.5459853045856509 0 6550 1.5459853045856509 1
gene 1 1455 1753 -3.0100476316223146 0 6607 -3.0100476316223146 1
gene 1 1753 14 -3.336507863908893 0 6608 -3.336507863908893 1
gene 1 17 12 -4.373524997743556 0 6688 -4.373524997743556 1
gene 1 17 10 -0.74443246789482975 0 6703 -0.74443246789482975 1
gene 1 8 1797 -0.85278368790297954 0 6764 -0.85278368790297954 1
gene 1 1797 521 0.53575389056268763 0 6765 0.53575389056268763 1
gene 1 1598 1802 2.6557136065586064 0 6777 2.6557136065586064 1
gene 1 1802 521 3.1234880410593417 0 6778 3.1234880410593417 1
gene 1 799 521 2.9027143014374723 0 6803 2.9027143014374723 1
gene 1 1350 40 1.4691129660555684 0 6912 1.4691129660555684 1
gene 1 387 1350 3.3268506260539183 0 6987 3.3268506260539183 1
gene 1 1165 1541 -2.0574828700255523 0 7006 -2.0574828700255523 1
gene 1 40 1867 7.6832129446478623 0 7046 7.6832129446478623 0
gene 1 1867 17 3.2272727531507952 0 7047 3.2272727531507952 1
gene 1 53 1923 1.9358048271554544 0 7232 1.9358048271554544 1
gene 1 1923 184 -5.6861441122070628 0 7233 -5.6861441122070628 1
gene 1 53 1350 -2.8056166932565931 0 7408 -2.8056166932565931 0
gene 1 1598 842 0.5019204983729495 0 7468 0.5019204983729495 1
gene 1 1292 1350 2.9003030163703043 0 7541 2.9003030163703043 1
gene 1 12 1014 -3.7732058102605905 0 7593 -3.7732058102605905 1
gene 1 13 2035 3.2368542859502392 0 7664 3.2368542859502392 1
gene 1 2035 521 3.5868793001628378 0 7665 3.5868793001628378 1
gene 1 842 387 -0.068979893517206015 0 7690 -0.068979893517206015 0
gene 1 7 1541 -6.0111203826084356 0 7822 -6.0111203826084356 1
gene 1 8 2076 -0.39291688333866936 0 7839 -0.39291688333866936 1
gene 1 2076 1797 3.1078348934570479 0 7840 3.1078348934570479 1
gene 1 8 2083 -4.1188519255811595 0 7862 -4.1188519255811595 1
gene 1 2083 387 4.9198929473035475 0 7863 4.9198929473035475 0
gene 1 12 2092 0.34303981370143188 0 7888 0.34303981370143188 1
gene 1 2092 521 1.1742569202437327 0 7889 1.1742569202437327 1
gene 1 1292 1282 2.1974024148151061 0 7903 2.1974024148151061 1
gene 1 482 17 -6.9057488232412139 0 7928 -6.9057488232412139 1
gene 1 4 1292 3.6490315191268605 0 7955 3.6490315191268605 1
gene 1 8 1292 3.9536969062423779 0 7981 3.9536969062423779 1
gene 1 184 1797 0.14426779008669177 0 8036 0.14426779008669177 1
gene 1 4 2181 -3.3924610311363175 0 8188 -3.3924610311363175 1
gene 1 2181 1282 -2.1092495516451306 0 8189 -2.1092495516451306 1
gene 1 1664 53 3.1888328622043276 0 8205 3.1888328622043276 1
gene 1 1292 2223 2.3672905720850865 0 8347 2.3672905720850865 1
gene 1 2223 1350 -0.96519159391298448 0 8348 -0.96519159391298448 1
gene 1 13 799 0.79055781792409641 0 8379 0.79055781792409641 1
gene 1 1014 1350 4.525982329634008 0 8502 4.525982329634008 1
gene 1 13 2311 5.0717790142967258 0 8649 5.0717790142967258 1
gene 1 2311 1598 3.3051362927910573 0 8650 3.3051362927910573 1
gene 1 1455 788 2.0605651486947036 0 8666 2.0605651486947036 1
gene 1 1544 1664 -2.7300802982552348 0 8709 -2.7300802982552348 1
gene 1 392 1867 -3.0025039566226783 0 8744 -3.0025039566226783 1
gene 1 3 2035 -0.27725048759125559 0 8775 -0.27725048759125559 1
gene 1 1 1292 7.0874720278603363 0 8796 7.0874720278603363 0
gene 1 1664 2311 8 0 8857 8 1
gene 1 1544 53 -7.3116104787735319 0 9058 -7.3116104787735319 1
gene 1 184 40 -3.7178792944377652 0 9208 -3.7178792944377652 1
gene 1 17 2454 -2.6338547501870684 0 9226 -2.6338547501870684 1
gene 1 2454 12 2.2983131060368907 0 9227 2.2983131060368907 1
gene 1 4 2476 5.1909669053349488 0 9305 5.1909669053349488 1
gene 1 2476 1292 -4.2760311022754909 0 9306 -4.2760311022754909 1
gene 1 2181 1292 7.0396238670868918 0 9489 7.0396238670868918 1
gene 1 1 2539 3.0129280971248766 0 9539 3.0129280971248766 1
gene 1 2539 1544 -8 0 9540 -8 1
gene 1 6 2542 1.8004555094989274 0 9552 1.8004555094989274 1
gene 1 2542 392 -5.6105259906374965 0 9553 -5.6105259906374965 1
gene 1 1488 392 4.3730247317454891 0 9645 4.3730247317454891 1
gene 1 1802 2311 3.422421571715931 0 9736 3.422421571715931 1
gene 1 2223 2539 4.1922226341419586 0 9821 4.1922226341419586 1
gene 1 6 799 5.5455316749031329 0 10083 5.5455316749031329 1
gene 1 36 2311 -6.0460169844077978 0 10161 -6.0460169844077978 1
gene 1 2035 1014 -0.70497751445741186 0 10184 -0.70497751445741186 1
gene 1 12 1802 -0.77390126524209057 0 10191 -0.77390126524209057 1
gene 1 2181 2223 5.0401433547680012 0 10207 5.0401433547680012 1
gene 1 13 1292 -4.835096260362814 0 10514 -4.835096260362814 1
gene 1 799 2181 -3.4711704848199929 0 10531 -3.4711704848199929 1
gene 1 2311 387 -3.1252824054683002 0 10594 -3.1252824054683002 1
gene 1 7 1797 -8 0 10649 -8 1
gene 1 12 2830 1.4317921150390953 0 10689 1.4317921150390953 0
gene 1 2830 1014 -3.9487461130827404 0 10690 -3.9487461130827404 1
gene 1 2083 1292 2.0235738124342513 0 10863 2.0235738124342513 1
gene 1 9 2539 -0.61651921743365001 0 11001 -0.61651921743365001 1
gene 1 799 2915 -1.6297364947757391 0 11047 -1.6297364947757391 1
gene 1 2915 2181 -5.4569911112241041 0 11048 -5.4569911112241041 1
gene 1 2076 1541 3.7324187983444053 0 11149 3.7324187983444053 1
gene 1 14 2950 -5.1108494602659942 0 11176 -5.1108494602659942 1
gene 1 2950 12 -5.619514036129468 0 11177 -5.619514036129468 1
gene 1 4 2958 -2.0057084646073449 0 11198 -2.0057084646073449 1
gene 1 2958 11 -1.790926835984423 0 11199 -1.790926835984423 1
gene 1 799 1292 -0.34324352011002757 0 11224 -0.34324352011002757 1
gene 1 184 2985 2.9197864316030353 0 11287 2.9197864316030353 1
gene 1 2985 40 4.3335328157856274 0 11288 4.3335328157856274 1
gene 1 12 2989 5.5112442679755604 0 11311 5.5112442679755604 1
gene 1 2989 2092 3.5639205605554949 0 11312 3.5639205605554949 1
gene 1 2035 1544 -2.4900014982046561 0 11468 -2.4900014982046561 1
gene 1 40 3024 -1.5537815108680078 0 11481 -1.5537815108680078 1
gene 1 3024 1867 4.8696561519846586 0 11482 4.8696561519846586 1
gene 1 6 3099 2.7219900639830108 0 11773 2.7219900639830108 1
gene 1 3099 754 8 0 11774 8 1
gene 1 1 3103 3.8499591613253679 0 11785 3.8499591613253679 1
gene 1 3103 2539 6.9255633131487118 0 11786 6.9255633131487118 1
gene 1 3099 1923 -4.701650745562115 0 11827 -4.701650745562115 1
gene 1 7 1867 7.2273132089652652 0 11874 7.2273132089652652 1
gene 1 2 482 6.3345815875262872 0 11959 6.3345815875262872 1
gene 1 8 3180 1.4453268603865643 0 12067 1.4453268603865643 1
gene 1 3180 184 1.8766209498870285 0 12068 1.8766209498870285 1
gene 1 482 3188 4.4786293625732077 0 12089 4.4786293625732077 1
gene 1 3188 10 1.5564699616080473 0 12090 1.5564699616080473 1
gene 1 2 3204 2.2780888125431202 0 12140 2.2780888125431202 1
gene 1 3204 10 3.3183276552908714 0 12141 3.3183276552908714 1
gene 1 2830 3024 3.8338264291565061 0 12330 3.8338264291565061 1
gene 1 6 2915 -2.7451098009222701 0 12391 -2.7451098009222701 1
gene 1 2539 17 2.3647349981659715 0 12481 2.3647349981659715 0
gene 1 2035 3325 -1.3871562321144899 0 12594 -1.3871562321144899 1
gene 1 3325 1014 -1.546994391524696 0 12595 -1.546994391524696 1
gene 1 1488 1455 -0.60625279061205317 0 12762 -0.60625279061205317 1
gene 1 184 3373 4.9161504108533967 0 12788 4.9161504108533967 1
gene 1 3373 1797 -4.2095292871396666 0 12789 -4.2095292871396666 1
gene 1 1541 17 -3.2198325469250944 0 12903 -3.2198325469250944 1
gene 1 1541 2985 8 0 12943 8 1
gene 1 7 3427 -0.66990038001439567 0 13007 -0.66990038001439567 0
gene 1 3427 53 -1.1208756300834364 0 13008 -1.1208756300834364 1
gene 1 12 3437 -2.0575102641922447 0 13044 -2.0575102641922447 1
gene 1 3437 521 1.3679690185319473 0 13045 1.3679690185319473 1
gene 1 13 2830 -3.1470064468435033 0 13191 -3.1470064468435033 1
gene 1 2083 1664 -6.448330821259102 0 13233 -6.448330821259102 1
gene 1 2539 3498 -5.8659440522389232 0 13259 -5.8659440522389232 1
gene 1 3498 17 2.6958035887374083 0 13260 2.6958035887374083 1
gene 1 12 3550 5.198415243718034 0 13453 5.198415243718034 0
gene 1 3550 2830 0.859993525715542 0 13454 0.859993525715542 1
gene 1 2083 1014 2.3911048446158434 0 13464 2.3911048446158434 1
gene 1 2958 2542 0.24445479055608388 0 13556 0.24445479055608388 0
gene 1 53 3590 1.4237775931478374 0 13594 1.4237775931478374 1
gene 1 3590 1165 -1.1225334980164343 0 13595 -1.1225334980164343 1
gene 1 2542 40 2.8983160342081988 0 13642 2.8983160342081988 1
gene 1 8 3601 -3.724771175079407 0 13656 -3.724771175079407 1
gene 1 3601 1292 6.7062832833762664 0 13657 6.7062832833762664 1
gene 1 3188 3614 5.1633786180162584 0 13712 5.1633786180162584 1
gene 1 3614 10 0.3824812320270492 0 13713 0.3824812320270492 1
gene 1 788 12 -2.3646935756153864 0 13729 -2.3646935756153864 1
gene 1 9 842 1.1324701773386772 0 13868 1.1324701773386772 1
gene 1 2989 1664 -2.230266550104258 0 14079 -2.230266550104258 1
gene 1 387 3709 0.58724657522386225 0 14091 0.58724657522386225 1
gene 1 3709 1350 -2.1820433334829494 0 14092 -2.1820433334829494 1
gene 1 2035 3373 -0.64725706654007409 0 14108 -0.64725706654007409 1
gene 1 1165 3714 5.4226473071019381 0 14116 5.4226473071019381 1
gene 1 3714 1541 0.73734267292595113 0 14117 0.73734267292595113 1
gene 1 2476 3103 3.4784702463673751 0 14188 3.4784702463673751 1
gene 1 3498 521 0.054469948799568346 0 14197 0.054469948799568346 1
gene 1 3204 2989 -1.5796855617918466 0 14210 -1.5796855617918466 1
gene 1 10 3498 0.79124621799739314 0 14396 0.79124621799739314 1
gene 1 3601 2083 4.3369231252171669 0 14409 4.3369231252171669 1
gene 1 788 2223 4.3159137575029929 0 14452 4.3159137575029929 0
gene 1 3498 788 -1.7223155022237062 0 14498 -1.7223155022237062 1
gene 1 2542 3188 -4.4104774711993411 0 14581 -4.4104774711993411 1
gene 1 7 3839 4.3710112312710017 0 14638 4.3710112312710017 1
gene 1 3839 842 -2.8477046221236599 0 14639 -2.8477046221236599 1
gene 1 3180 2989 -0.013926827867481339 0 14663 -0.013926827867481339 1
gene 1 13 3863 -6.162332252954287 0 14712 -6.162332252954287 1
gene 1 3863 184 4.9676646747475788 0 14713 4.9676646747475788 0
gene 1 3373 3601 -7.4080076257735525 0 14729 -7.4080076257735525 1
gene 1 2985 3550 1.3465530622967301 0 14755 1.3465530622967301 1
gene 1 2915 3896 -5.6996708650664285 0 14848 -5.6996708650664285 1
gene 1 3896 2181 2.5560126459486843 0 14849 2.5560126459486843 1
gene 1 7 3936 8 0 14981 8 1
gene 1 3936 1867 2.3263891548506863 0 14982 2.3263891548506863 1
gene 1 9 3325 8 0 15055 8 1
gene 1 13 3996 2.5107491545429221 0 15182 2.5107491545429221 1
gene 1 3996 17 1.9064125603560418 0 15183 1.9064125603560418 1
gene 1 3839 3999 2.030046811108499 0 15200 2.030046811108499 1
gene 1 3999 842 5.3739477775986053 0 15201 5.3739477775986053 1
gene 1 3590 4033 2.9340594847379524 0 15336 2.9340594847379524 1
gene 1 4033 1165 -5.2064719822957279 0 15337 -5.2064719822957279 1
gene 1 2542 4068 -4.4788258849544569 0 15462 -4.4788258849544569 1
gene 1 4068 3188 5.604849547615669 0 15463 5.604849547615669 1
gene 1 5 1488 -3.3130036022574654 0 15512 -3.3130036022574654 1
gene 1 7 799 1.7472068188466161 0 15596 1.7472068188466161 1
gene 1 14 1243 1.7913965832401983 0 15889 1.7913965832401983 1
gene 1 53 4207 -5.7691051055533373 0 15960 -5.7691051055533373 1
gene 1 4207 3590 0.70101480677305483 0 15961 0.70101480677305483 1
gene 1 1923 521 -4.4757491090687678 0 16008 -4.4757491090687678 1
gene 1 3437 3188 3.9004535748683633 0 16097 3.9004535748683633 0
gene 1 2035 4249 4.686909308138727 0 16150 4.686909308138727 1
gene 1 4249 521 5.2760472832601728 0 16151 5.2760472832601728 1
gene 1 387 4260 -4.2453990949179978 0 16183 -4.2453990949179978 1
gene 1 4260 3709 -1.1046730117894117 0 16184 -1.1046730117894117 1
gene 1 2181 4300 -1.613683213695736 0 16314 -1.613683213695736 1
gene 1 4300 1292 -0.16622354487945534 0 16315 -0.16622354487945534 1
gene 1 7 4307 -1.3203878560896909 0 16333 -1.3203878560896909 1
gene 1 4307 1797 -4.0188570011960598 0 16334 -4.0188570011960598 1
gene 1 3996 4325 -0.2900375155219983 0 16400 -0.2900375155219983 1
gene 1 4325 17 2.029629032607017 0 16401 2.029629032607017 1
gene 1 8 4338 1.1851208888856326 0 16456 1.1851208888856326 1
gene 1 4338 14 5.7031941299807247 0 16457 5.7031941299807247 0
gene 1 8 4395 8 0 16638 8 0
gene 1 4395 3601 -0.52653468003335235 0 16639 -0.52653468003335235 1
gene 1 1562 2181 4.5347336760309034 0 16652 4.5347336760309034 1
gene 1 8 4406 1.8096606842287166 0 16677 1.8096606842287166 1
gene 1 4406 13 3.8376300402568324 0 16678 3.8376300402568324 1
gene 1 3996 3863 0.16166890201236528 0 17588 0.16166890201236528 1
gene 1 17 4260 2.0877359219303986 0 17629 2.0877359219303986 1
gene 1 4033 3188 -1.3987635659513822 0 17736 -1.3987635659513822 1
gene 1 3103 2915 2.5706800886293317 0 17801 2.5706800886293317 0
gene 1 1 2989 -0.29285547360445152 0 17834 -0.29285547360445152 1
gene 1 1867 1797 0.23417283829030244 0 18022 0.23417283829030244 1
gene 1 1923 4791 3.4340727811837901 0 18067 3.4340727811837901 1
gene 1 4791 184 -0.53781824621270324 0 18068 -0.53781824621270324 1
gene 1 4300 4815 -0.53321894436758921 0 18159 -0.53321894436758921 1
gene 1 4815 1292 -2.5440486196633647 0 18160 -2.5440486196633647 1
gene 1 3996 4875 0.61073118718840647 0 18373 0.61073118718840647 1
gene 1 4875 3863 0.65784531750615927 0 18374 0.65784531750615927 1
gene 1 4395 2958 -0.53052978875605838 0 18391 -0.53052978875605838 1
gene 1 4815 2539 0.91012400375219238 0 18407 0.91012400375219238 1
gene 1 4791 3601 0.66475197200884673 0 18465 0.66475197200884673 1
gene 1 2311 1797 1.5828648062343076 0 18542 1.5828648062343076 1
gene 1 1541 4929 3.2064623652521815 0 18589 3.2064623652521815 1
gene 1 4929 2985 -1.3098423155536141 0 18590 -1.3098423155536141 1
gene 1 7 4951 -1.0676267162280282 0 18658 -1.0676267162280282 1
gene 1 4951 3427 0.4012488741899134 0 18659 0.4012488741899134 1
gene 1 4875 4956 -1.5822367418940351 0 18673 -1.5822367418940351 1
gene 1 4956 3863 -0.73355519712602524 0 18674 -0.73355519712602524 0
gene 1 387 1923 -2.0058088601826731 0 18850 -2.0058088601826731 1
gene 1 10 3437 -3.987078418669793 0 18950 -3.987078418669793 1
gene 1 1 5054 -0.49655695836830749 0 19021 -0.49655695836830749 1
gene 1 5054 11 -1.5427817923681724 0 19022 -1.5427817923681724 1
gene 1 1753 1802 -1.7884060907123638 0 19062 -1.7884060907123638 1
gene 1 284 5071 -2.5375096389267173 0 19074 -2.5375096389267173 0
gene 1 5071 521 2.1908955699256132 0 19075 2.1908955699256132 1
gene 1 842 4395 1.6521554220710672 0 19188 1.6521554220710672 1
gene 1 3601 3614 0.35865158883791953 0 19522 0.35865158883791953 1
gene 1 3373 5071 0.59326025340392252 0 19764 0.59326025340392252 1
gene 1 2958 4951 0.48305236579992422 0 19784 0.48305236579992422 1
gene 1 842 5254 -2.9999485967214912 0 19811 -2.9999485967214912 1
gene 1 5254 53 -3.296794299197753 0 19812 -3.296794299197753 1
gene 1 1797 4033 0.19277880428953997 0 19854 0.19277880428953997 1
gene 1 284 2989 -3.2178074488964903 0 19878 -3.2178074488964903 1
gene 1 1350 4815 -1.6569645822313448 0 19913 -1.6569645822313448 1
gene 1 4 284 -0.47453283708287997 0 20056 -0.47453283708287997 1
gene 1 3714 3550 -0.67266339281232246 0 20131 -0.67266339281232246 1
gene 1 4406 1664 -1.9458471093074639 0 20158 -1.9458471093074639 1
gene 1 3373 3999 -0.33919260824992925 0 20217 -0.33919260824992925 1
gene 1 2985 3896 2.8227645698575135 0 20262 2.8227645698575135 1
gene 1 3601 284 2.4934145031931876 0 20300 2.4934145031931876 1
gene 1 788 4325 2.057672011506591 0 20323 2.057672011506591 1
gene 1 1 5378 4.8421921350491193 0 20329 4.8421921350491193 1
gene 1 5378 14 0.4027148290084277 0 20330 0.4027148290084277 1
gene 1 1598 1455 4.4049516271590026 0 20441 4.4049516271590026 1
gene 1 36 5446 -0.54624522186175195 0 20568 -0.54624522186175195 1
gene 1 5446 842 -0.37619049603873422 0 20569 -0.37619049603873422 1
gene 1 4307 2476 -5.3033802442268376 0 20605 -5.3033802442268376 1
gene 1 3709 4325 -0.37683762974424151 0 20681 -0.37683762974424151 1
gene 1 4791 392 1.6017061419560137 0 20694 1.6017061419560137 1
gene 1 3325 2542 -2.5189606349537899 0 20709 -2.5189606349537899 1
gene 1 1802 5446 -0.61853495860404073 0 20724 -0.61853495860404073 1
gene 1 1350 5535 1.2357081998305899 0 20928 1.2357081998305899 1
gene 1 5535 12 1.8842241334888259 0 20929 1.8842241334888259 1
gene 1 8 5547 0.024891005980265835 0 20974 0.024891005980265835 1
gene 1 5547 4406 0.31505206176780742 0 20975 0.31505206176780742 0
gene 1 4956 3204 -0.2461284169210719 0 21060 -0.2461284169210719 1
gene 1 53 3188 3.5125314230623337 0 21117 3.5125314230623337 1
gene 1 3714 5547 -2.368088367752772 0 21138 -2.368088367752772 0
gene 1 1797 4068 -0.27389754069684891 0 21194 -0.27389754069684891 1
gene 1 1 5600 -1.6342827132131359 0 21205 -1.6342827132131359 1
gene 1 5600 1664 1.4189563596884047 0 21206 1.4189563596884047 1
gene 1 1243 3714 -0.75401635708008719 0 21237 -0.75401635708008719 1
gene 1 4338 1867 -0.65025026944943232 0 21258 -0.65025026944943232 1
gene 1 4338 5616 2.8424535989726207 0 21269 2.8424535989726207 1
gene 1 5616 14 1.7026583485783349 0 21270 1.7026583485783349 1
gene 1 2539 36 0.26185485174034484 0 21278 0.26185485174034484 1
gene 1 3996 4260 1.5876837472374006 0 21336 1.5876837472374006 1
gene 1 5616 4207 -0.59771038619694783 0 21510 -0.59771038619694783 1
gene 1 7 5684 1 0 21547 1 1
gene 1 5684 1544 0.7004009034020835 0 21548 0.7004009034020835 0
gene 1 1243 5697 0.29954333608017469 0 21588 0.29954333608017469 1
gene 1 5697 284 0.56803994158657245 0 21589 0.56803994158657245 1
gene 1 4815 5378 0.14175781195133821 0 21808 0.14175781195133821 1
gene 1 521 1243 0.40470912792007863 0 21837 0.40470912792007863 1
gene 1 5071 1562 -0.51684420440199053 0 21926 -0.51684420440199053 1
gene 1 4338 5797 1 0 21984 0 1
gene 1 5797 5616 2.8424535989726207 0 21985 0 1
gene 1 788 5806 1 0 22010 0 1
gene 1 5806 2223 4.3159137575029929 0 22011 0 1
gene 1 36 5684 0.013135001535124612 0 22235 0.013135001535124612 1
gene 1 5071 2035 0.90993270879142574 0 22249 0.90993270879142574 1
gene 1 5378 3590 -0.40688526230253524 0 22275 -0.40688526230253524 1
gene 1 2915 2076 0.20170237133358715 0 22400 0.20170237133358715 1
gene 1 4 5909 1 0 22420 0 1
gene 1 5909 11 -0.26753553956166631 0 22421 0 1
gene 1 1 5914 1 0 22434 0 1
gene 1 5914 13 1.8625573479861748 0 22435 0 1
gene 1 3550 4951 -0.23036058024985742 0 22444 -0.23036058024985742 1
gene 1 5547 5938 1 0 22525 0 1
gene 1 5938 4406 0.31505206176780742 0 22526 0 1
gene 1 3437 5966 1 0 22620 0 1
gene 1 5966 3188 3.9004535748683633 0 22621 0 1
gene 1 9 5446 -0.22565417747276564 0 22695 -0.22565417747276564 1
gene 1 5697 4395 0.50017795828179357 0 22824 0.50017795828179357 1
gene 1 5071 40 -0.81986615286202458 0 22894 -0.81986615286202458 1
gene 1 5535 4406 0.79942057691487511 0 22925 0.79942057691487511 1
gene 1 2076 3936 -0.13564613188414187 0 22956 -0.13564613188414187 0
gene 1 6 6050 1 0 22973 0 1
gene 1 6050 3099 2.7219900639830108 0 22974 0 1
gene 1 1541 3550 0.33848430697735599 0 22996 0.33848430697735599 1
gene 1 5806 4207 -0.083541282025883568 0 23038 -0.083541282025883568 1
gene 1 3024 387 0.096473282713663427 0 23268 0.096473282713663427 1
gene 1 4325 387 0.57037504463008371 0 23305 0.57037504463008371 1
gene 1 3325 1753 -0.55843999914752318 0 23319 -0.55843999914752318 1
gene 1 4325 5806 0.81637418121861949 0 23333 0.81637418121861949 1
gene 1 53 6140 1 0 23350 0 1
gene 1 6140 1350 -2.8056166932565931 0 23351 0 1
gene 1 842 6194 1 0 23558 0 1
gene 1 6194 387 -0.068979893517206015 0 23559 0 1
gene 1 3601 14 0.64754674101599807 0 23712 0.64754674101599807 1
gene 1 1664 4338 -0.91278858944437868 0 23746 -0.91278858944437868 1
gene 1 3188 3099 -0.44600815020781392 0 23778 -0.44600815020781392 1
gene 1 12 6277 1 0 23866 0 0
gene 1 6277 2830 1.4317921150390953 0 23867 0 1
gene 1 4 6292 1 0 23943 0 1
gene 1 6292 284 -0.47453283708287997 0 23944 0 1
gene 1 4395 5547 0.11331162420721334 0 23990 0.11331162420721334 1
gene 1 8 6317 1 0 24031 0 1
gene 1 6317 4395 8 0 24032 0 1
gene 1 5535 1455 -0.16845061032495023 0 24171 -0.16845061032495023 1
gene 1 521 5535 -0.94413266095525239 0 24213 -0.94413266095525239 1
gene 1 12 6372 1 0 24254 0 1
gene 1 6372 6277 1 0 24255 0 1
gene 1 2076 6422 1 0 24426 0 1
gene 1 6422 3936 -0.13564613188414187 0 24427 0 1
gene 1 3714 6461 1 0 24563 0 1
gene 1 6461 5547 -2.368088367752772 0 24564 0 1
gene 1 4325 1165 0.80411070669261309 0 24616 0.80411070669261309 1
gene 1 12 6496 1 0 24702 0 1
gene 1 6496 3550 5.198415243718034 0 24703 0 1
gene 1 2539 387 -0.70947788549097157 0 24731 -0.70947788549097157 1
genomeend 0
